{"learner":{"attributes":{"scikit_learn":"{\"_estimator_type\": \"regressor\"}"},"feature_names":["state","district","market","variety","group","arrival","min_rs","max_rs","commodity","season","month","day","year"],"feature_types":["int","int","int","int","int","float","float","float","int","int","int","int","int"],"gradient_booster":{"model":{"gbtree_model_param":{"num_parallel_tree":"1","num_trees":"100"},"iteration_indptr":[0,1,2,3,4,5,6,7,8,9,10,11,12,13,14,15,16,17,18,19,20,21,22,23,24,25,26,27,28,29,30,31,32,33,34,35,36,37,38,39,40,41,42,43,44,45,46,47,48,49,50,51,52,53,54,55,56,57,58,59,60,61,62,63,64,65,66,67,68,69,70,71,72,73,74,75,76,77,78,79,80,81,82,83,84,85,86,87,88,89,90,91,92,93,94,95,96,97,98,99,100],"tree_info":[0,0,0,0,0,0,0,0,0,0,0,0,0,0,0,0,0,0,0,0,0,0,0,0,0,0,0,0,0,0,0,0,0,0,0,0,0,0,0,0,0,0,0,0,0,0,0,0,0,0,0,0,0,0,0,0,0,0,0,0,0,0,0,0,0,0,0,0,0,0,0,0,0,0,0,0,0,0,0,0,0,0,0,0,0,0,0,0,0,0,0,0,0,0,0,0,0,0,0,0],"trees":[{"base_weights":[3.46242E-5,-5.311033E2,7.466009E3,-1.1430354E3,1.2199863E3,5.6656963E3,1.3058637E4,-1.7468219E3,-6.181307E2,7.0689044E2,2.2196082E3,4.0639778E3,6.686096E3,4.676481E4,1.2457195E4,-2.0054922E3,-1.4753401E3,-9.719182E2,-3.6654675E2,3.653155E2,1.1545573E3,1.8553058E3,2.8489714E3,3.7352192E3,4.5572754E3,6.2770312E3,8.09729E3,3.5607306E5,2.9406348E4,1.1569356E4,2.3285635E4,-2.1785213E2,-1.833159E2,-1.5136174E2,-1.0419567E2,-9.730437E1,1.0976978E4,-4.9375774E1,-9.230821E0,1.0890638E1,5.283556E1,9.441757E1,1.3700844E2,1.3049834E2,1.9393083E2,2.4183817E2,3.123913E2,2.2829167E2,3.8249948E2,4.2231036E2,4.831389E2,5.82792E2,6.7678644E2,7.5267444E2,8.675395E2,6.079858E2,3.633904E4,1.0342059E3,3.376157E3,1.0458412E3,1.2940756E3,1.0777943E3,2.8754304E3],"categories":[],"categories_nodes":[],"categories_segments":[],"categories_sizes":[],"default_left":[0,0,0,0,0,0,0,0,0,0,0,0,0,0,0,0,0,0,0,0,0,0,0,0,0,0,0,0,0,0,0,0,0,0,0,0,0,0,0,0,0,0,0,0,0,0,0,0,0,0,0,0,0,0,0,0,0,0,0,0,0,0,0],"id":0,"left_children":[1,3,5,7,9,11,13,15,17,19,21,23,25,27,29,31,33,35,37,39,41,43,45,47,49,51,53,55,57,59,61,-1,-1,-1,-1,-1,-1,-1,-1,-1,-1,-1,-1,-1,-1,-1,-1,-1,-1,-1,-1,-1,-1,-1,-1,-1,-1,-1,-1,-1,-1,-1,-1],"loss_changes":[1.2662437E13,3.1946032E12,2.135229E12,7.00179E11,3.9598005E11,2.6218699E11,1.04636036E12,7.214727E10,1.0519098E11,7.80115E10,6.003517E10,1.0108666E10,5.6521916E10,4.84858E12,4.8754013E11,1.5684338E10,8.314421E9,6.13183E10,2.4095089E10,1.2097417E10,1.0010362E10,7.665025E9,1.1358175E10,4.876927E9,2.2663987E9,1.6710107E10,7.197688E9,1.2071941E11,7.08899E10,7.13147E10,2.626215E11,0E0,0E0,0E0,0E0,0E0,0E0,0E0,0E0,0E0,0E0,0E0,0E0,0E0,0E0,0E0,0E0,0E0,0E0,0E0,0E0,0E0,0E0,0E0,0E0,0E0,0E0,0E0,0E0,0E0,0E0,0E0,0E0],"parents":[2147483647,0,0,1,1,2,2,3,3,4,4,5,5,6,6,7,7,8,8,9,9,10,10,11,11,12,12,13,13,14,14,15,15,16,16,17,17,18,18,19,19,20,20,21,21,22,22,23,23,24,24,25,25,26,26,27,27,28,28,29,29,30,30],"right_children":[2,4,6,8,10,12,14,16,18,20,22,24,26,28,30,32,34,36,38,40,42,44,46,48,50,52,54,56,58,60,62,-1,-1,-1,-1,-1,-1,-1,-1,-1,-1,-1,-1,-1,-1,-1,-1,-1,-1,-1,-1,-1,-1,-1,-1,-1,-1,-1,-1,-1,-1,-1,-1],"split_conditions":[6.6E3,3.05E3,1.2E4,1.5E3,4.6E3,7.74E3,2E0,1.23E3,2.23E3,3.5E3,5E3,6.75E3,1.0285E4,1E1,6E0,8E2,2.14E3,1.55E4,2.5E3,3E3,4.1E3,3.1E3,5.751E3,2.46E3,7.43E3,9.28E3,1.12E4,2E0,1.55E4,1.46E4,1.55E4,-2.1785213E2,-1.833159E2,-1.5136174E2,-1.0419567E2,-9.730437E1,1.0976978E4,-4.9375774E1,-9.230821E0,1.0890638E1,5.283556E1,9.441757E1,1.3700844E2,1.3049834E2,1.9393083E2,2.4183817E2,3.123913E2,2.2829167E2,3.8249948E2,4.2231036E2,4.831389E2,5.82792E2,6.7678644E2,7.5267444E2,8.675395E2,6.079858E2,3.633904E4,1.0342059E3,3.376157E3,1.0458412E3,1.2940756E3,1.0777943E3,2.8754304E3],"split_indices":[7,7,6,6,7,6,4,7,7,6,6,6,7,0,4,6,7,6,6,6,7,6,7,6,7,7,7,0,6,7,6,0,0,0,0,0,0,0,0,0,0,0,0,0,0,0,0,0,0,0,0,0,0,0,0,0,0,0,0,0,0,0,0],"split_type":[0,0,0,0,0,0,0,0,0,0,0,0,0,0,0,0,0,0,0,0,0,0,0,0,0,0,0,0,0,0,0,0,0,0,0,0,0,0,0,0,0,0,0,0,0,0,0,0,0,0,0,0,0,0,0,0,0,0,0,0,0,0,0],"sum_hessian":[3.193372E6,2.981295E6,2.12077E5,2.209254E6,7.72041E5,1.60434E5,5.1643E4,1.027426E6,1.181828E6,5.10175E5,2.61866E5,6.2435E4,9.7999E4,9.04E2,5.0739E4,5.26124E5,5.01302E5,4.9115E5,6.90678E5,2.89378E5,2.20797E5,1.65862E5,9.6004E4,3.7471E4,2.4964E4,7.598E4,2.2019E4,4.7E1,8.57E2,4.6896E4,3.843E3,2.62526E5,2.63598E5,4.60617E5,4.0685E4,4.91146E5,4E0,4.71816E5,2.18862E5,1.12482E5,1.76896E5,1.11735E5,1.09062E5,2.1967E4,1.43895E5,3.7416E4,5.8588E4,2.183E3,3.5288E4,1.1257E4,1.3707E4,3.9683E4,3.6297E4,1.1089E4,1.093E4,1E0,4.6E1,1.6E2,6.97E2,2.5913E4,2.0983E4,1.17E3,2.673E3],"tree_param":{"num_deleted":"0","num_feature":"13","num_nodes":"63","size_leaf_vector":"1"}},{"base_weights":[1.9899983E-2,-4.468796E2,7.191299E3,-9.9259106E2,1.2750615E3,5.763298E3,1.28118545E4,-1.4775289E3,-4.1614505E2,7.569071E2,2.1563381E3,4.8930107E3,7.4034336E3,7.024166E4,1.2365053E4,-1.7683955E3,-1.2032118E3,-6.2474786E2,-1.233449E2,4.1756107E2,1.0682341E3,1.849187E3,2.9994297E3,3.9490784E3,5.476725E3,6.519029E3,8.476646E3,3.278245E4,2.0743139E4,2.2994723E4,1.1164085E4,-1.955045E2,-1.615614E2,-1.3524638E2,-1.05009415E2,-6.2558094E1,1.0098819E4,-2.2761202E1,9.695159E0,1.01429825E1,5.1221478E1,9.017477E1,1.3259813E2,1.6030247E2,2.1370555E2,2.7050546E2,3.2397882E2,2.6564267E2,4.06458E2,5.0691708E2,5.817553E2,6.2695496E2,6.7642053E2,7.9582086E2,9.0031805E2,1.6748802E3,2.5821322E4,1.098229E3,2.5524988E3,1.1143844E3,3.4714215E4],"categories":[],"categories_nodes":[],"categories_segments":[],"categories_sizes":[],"default_left":[0,0,0,0,0,0,0,0,0,0,0,0,0,0,0,0,0,0,0,0,0,0,0,0,0,0,0,0,0,0,0,0,0,0,0,0,0,0,0,0,0,0,0,0,0,0,0,0,0,0,0,0,0,0,0,0,0,0,0,0,0],"id":1,"left_children":[1,3,5,7,9,11,13,15,17,19,21,23,25,27,29,31,33,35,37,39,41,43,45,47,49,51,53,-1,55,57,59,-1,-1,-1,-1,-1,-1,-1,-1,-1,-1,-1,-1,-1,-1,-1,-1,-1,-1,-1,-1,-1,-1,-1,-1,-1,-1,-1,-1,-1,-1],"loss_changes":[1.0262799E13,2.8251904E12,1.499534E12,6.381935E11,3.3038637E11,2.1262972E11,9.704036E11,9.893079E10,6.3710773E10,4.8136077E10,6.936684E10,5.3612642E10,4.8966664E10,3.7161908E12,4.7924275E11,1.7158373E10,1.4581563E10,5.1625968E10,9.968103E9,6.5234E9,1.0195681E10,1.3911065E10,5.052629E9,5.543035E9,8.324907E9,1.6897802E9,6.29683E9,0E0,2.2901486E11,1.1558401E11,2.2565198E11,0E0,0E0,0E0,0E0,0E0,0E0,0E0,0E0,0E0,0E0,0E0,0E0,0E0,0E0,0E0,0E0,0E0,0E0,0E0,0E0,0E0,0E0,0E0,0E0,0E0,0E0,0E0,0E0,0E0,0E0],"parents":[2147483647,0,0,1,1,2,2,3,3,4,4,5,5,6,6,7,7,8,8,9,9,10,10,11,11,12,12,13,13,14,14,15,15,16,16,17,17,18,18,19,19,20,20,21,21,22,22,23,23,24,24,25,25,26,26,28,28,29,29,30,30],"right_children":[2,4,6,8,10,12,14,16,18,20,22,24,26,28,30,32,34,36,38,40,42,44,46,48,50,52,54,-1,56,58,60,-1,-1,-1,-1,-1,-1,-1,-1,-1,-1,-1,-1,-1,-1,-1,-1,-1,-1,-1,-1,-1,-1,-1,-1,-1,-1,-1,-1,-1,-1],"split_conditions":[7.025E3,3.25E3,1.32E4,1.7E3,4.7E3,9.5E3,1E1,1.31E3,2.52E3,3.5E3,5.4E3,7.74E3,1.12E4,2E0,1.4E1,8E2,1.61E3,1.55E4,2.7E3,2.55E3,4.25E3,5.18E3,6.25E3,3.4E3,9.04E3,9.9E3,1.26E4,3.278245E4,1.9E2,1.55E4,6E5,-1.955045E2,-1.615614E2,-1.3524638E2,-1.05009415E2,-6.2558094E1,1.0098819E4,-2.2761202E1,9.695159E0,1.01429825E1,5.1221478E1,9.017477E1,1.3259813E2,1.6030247E2,2.1370555E2,2.7050546E2,3.2397882E2,2.6564267E2,4.06458E2,5.0691708E2,5.817553E2,6.2695496E2,6.7642053E2,7.9582086E2,9.0031805E2,1.6748802E3,2.5821322E4,1.098229E3,2.5524988E3,1.1143844E3,3.4714215E4],"split_indices":[7,7,6,6,7,6,0,7,7,6,6,6,7,4,0,6,7,6,6,6,7,7,7,6,7,6,7,0,3,6,6,0,0,0,0,0,0,0,0,0,0,0,0,0,0,0,0,0,0,0,0,0,0,0,0,0,0,0,0,0,0],"split_type":[0,0,0,0,0,0,0,0,0,0,0,0,0,0,0,0,0,0,0,0,0,0,0,0,0,0,0,0,0,0,0,0,0,0,0,0,0,0,0,0,0,0,0,0,0,0,0,0,0,0,0,0,0,0,0,0,0,0,0,0,0],"sum_hessian":[3.193372E6,3.006533E6,1.86839E5,2.28301E6,7.23523E5,1.48988E5,3.7851E4,1.23992E6,1.04309E6,4.55632E5,2.67891E5,9.7341E4,5.1647E4,2.91E2,3.756E4,6.01804E5,6.38116E5,6.09124E5,4.33966E5,2.18007E5,2.37625E5,1.96358E5,7.1533E4,3.7197E4,6.0144E4,2.8318E4,2.3329E4,4.6E1,2.45E2,3.811E3,3.3749E4,2.70873E5,3.30931E5,3.23133E5,3.14983E5,6.0912E5,4E0,2.94553E5,1.39413E5,5.0234E4,1.67773E5,1.44374E5,9.3251E4,1.0585E5,9.0508E4,3.2159E4,3.9374E4,3.053E3,3.4144E4,2.7398E4,3.2746E4,1.4049E4,1.4269E4,1.1763E4,1.1566E4,2.42E2,3E0,6.64E2,3.147E3,3.3748E4,1E0],"tree_param":{"num_deleted":"0","num_feature":"13","num_nodes":"61","size_leaf_vector":"1"}},{"base_weights":[5.3981625E-2,-4.3037552E2,6.050836E3,-9.261786E2,9.884019E2,4.59172E3,1.0583545E4,-1.3932047E3,-4.7157156E2,4.7678635E2,1.6523046E3,3.484128E3,5.5594487E3,3.853643E4,1.0084768E4,-1.6583196E3,-1.1825042E3,-6.7544226E2,-2.1506564E2,2.4260626E2,7.972239E2,1.3880496E3,2.312903E3,3.1614165E3,4.133165E3,5.2193667E3,6.596402E3,2.898002E5,2.44348E4,9.359577E3,1.892951E4,-1.8284372E2,-1.5597688E2,-1.183277E2,9.290913E3,-7.988601E1,-5.185279E1,-3.2047935E1,-3.6420352E0,-1.4403238E1,3.171943E1,6.0288155E1,9.215691E1,1.2772652E2,1.733927E2,1.9642223E2,2.5355493E2,2.1781314E2,3.2507254E2,4.0029245E2,5.461152E2,4.9677295E2,5.6310236E2,6.1352856E2,7.0698456E2,5.3257056E2,2.9573953E4,2.9090186E3,1.088471E3,8.816997E2,1.1565409E3,1.869556E3,2.3884723E4],"categories":[],"categories_nodes":[],"categories_segments":[],"categories_sizes":[],"default_left":[0,0,0,0,0,0,0,0,0,0,0,0,0,0,0,0,0,0,0,0,0,0,0,0,0,0,0,0,0,0,0,0,0,0,0,0,0,0,0,0,0,0,0,0,0,0,0,0,0,0,0,0,0,0,0,0,0,0,0,0,0,0,0],"id":2,"left_children":[1,3,5,7,9,11,13,15,17,19,21,23,25,27,29,31,33,35,37,39,41,43,45,47,49,51,53,55,57,59,61,-1,-1,-1,-1,-1,-1,-1,-1,-1,-1,-1,-1,-1,-1,-1,-1,-1,-1,-1,-1,-1,-1,-1,-1,-1,-1,-1,-1,-1,-1,-1,-1],"loss_changes":[8.316935E12,2.0971466E12,1.402581E12,4.6905387E11,2.6223326E11,1.7194287E11,7.196456E11,6.0871016E10,5.85438E10,3.271961E10,5.8653213E10,1.5656878E10,3.0160191E10,3.1995404E12,3.252756E11,8.0872735E9,4.4265243E10,1.2079202E10,9.335994E9,7.265187E9,4.448518E9,9.19434E9,7.448232E9,4.381344E9,4.2747494E9,6.651511E9,4.5721846E9,7.9525315E10,5.3806793E10,5.602594E10,1.9330721E11,0E0,0E0,0E0,0E0,0E0,0E0,0E0,0E0,0E0,0E0,0E0,0E0,0E0,0E0,0E0,0E0,0E0,0E0,0E0,0E0,0E0,0E0,0E0,0E0,0E0,0E0,0E0,0E0,0E0,0E0,0E0,0E0],"parents":[2147483647,0,0,1,1,2,2,3,3,4,4,5,5,6,6,7,7,8,8,9,9,10,10,11,11,12,12,13,13,14,14,15,15,16,16,17,17,18,18,19,19,20,20,21,21,22,22,23,23,24,24,25,25,26,26,27,27,28,28,29,29,30,30],"right_children":[2,4,6,8,10,12,14,16,18,20,22,24,26,28,30,32,34,36,38,40,42,44,46,48,50,52,54,56,58,60,62,-1,-1,-1,-1,-1,-1,-1,-1,-1,-1,-1,-1,-1,-1,-1,-1,-1,-1,-1,-1,-1,-1,-1,-1,-1,-1,-1,-1,-1,-1,-1,-1],"split_conditions":[6.6E3,3.05E3,1.2E4,1.83E3,4.325E3,8.3E3,2E0,1E3,2.2E3,3.4E3,5E3,7.025E3,1.0285E4,1E1,6E0,8.5E2,1.55E4,1.95E3,2.72E3,2.5E3,3.9E3,5.025E3,5.751E3,3.4E3,9.04E3,9.6E3,1.12E4,2E0,1.8E1,1.55E4,1.9E2,-1.8284372E2,-1.5597688E2,-1.183277E2,9.290913E3,-7.988601E1,-5.185279E1,-3.2047935E1,-3.6420352E0,-1.4403238E1,3.171943E1,6.0288155E1,9.215691E1,1.2772652E2,1.733927E2,1.9642223E2,2.5355493E2,2.1781314E2,3.2507254E2,4.0029245E2,5.461152E2,4.9677295E2,5.6310236E2,6.1352856E2,7.0698456E2,5.3257056E2,2.9573953E4,2.9090186E3,1.088471E3,8.816997E2,1.1565409E3,1.869556E3,2.3884723E4],"split_indices":[7,7,6,7,7,6,4,6,6,6,6,6,7,0,4,7,6,6,7,6,7,7,7,6,7,7,7,0,0,6,3,0,0,0,0,0,0,0,0,0,0,0,0,0,0,0,0,0,0,0,0,0,0,0,0,0,0,0,0,0,0,0,0],"split_type":[0,0,0,0,0,0,0,0,0,0,0,0,0,0,0,0,0,0,0,0,0,0,0,0,0,0,0,0,0,0,0,0,0,0,0,0,0,0,0,0,0,0,0,0,0,0,0,0,0,0,0,0,0,0,0,0,0,0,0,0,0,0,0],"sum_hessian":[3.193372E6,2.981295E6,2.12077E5,2.209254E6,7.72041E5,1.60434E5,5.1643E4,1.089741E6,1.119513E6,4.3603E5,3.36011E5,7.4813E4,8.5621E4,9.04E2,5.0739E4,4.82556E5,6.07185E5,6.23753E5,4.9576E5,2.51923E5,1.84107E5,2.40006E5,9.6005E4,4.9972E4,2.4841E4,6.448E4,2.1141E4,4.7E1,8.57E2,4.6896E4,3.843E3,1.77001E5,3.05555E5,6.07181E5,4E0,3.4914E5,2.74613E5,3.11784E5,1.83976E5,4.074E4,2.11183E5,7.1837E4,1.1227E5,1.81785E5,5.8221E4,3.7417E4,5.8588E4,4.163E3,4.5809E4,2.2626E4,2.215E3,4.0026E4,2.4454E4,1.0717E4,1.0424E4,1E0,4.6E1,6.37E2,2.2E2,3.7642E4,9.254E3,3.84E3,3E0],"tree_param":{"num_deleted":"0","num_feature":"13","num_nodes":"63","size_leaf_vector":"1"}},{"base_weights":[7.2149895E-2,-3.6219785E2,5.829536E3,-8.018074E2,1.0423007E3,5.1963037E3,1.4533211E4,-1.1850363E3,-3.164962E2,6.8852496E2,1.8873147E3,4.247745E3,7.542513E3,1.04832375E5,1.3457661E4,-1.4386687E3,-9.5976013E2,-4.7285657E2,-6.3293907E1,4.4751297E2,1.0552155E3,1.5508312E3,2.3819136E3,3.396384E3,4.818281E3,6.7095186E3,8.422592E3,2.9909389E4,2.6679484E4,2.0946803E4,1.093747E4,-1.6271976E2,-1.3395378E2,-1.0937593E2,-8.376096E1,-6.0140743E1,-3.5803963E1,-6.4460196E0,7.492415E3,4.723709E0,5.3417774E1,9.836417E1,1.4461526E2,1.4006145E2,1.7271082E2,2.1753189E2,2.6377927E2,3.136879E2,3.921543E2,4.5662595E2,5.267344E2,6.311003E2,7.179219E2,8.000047E2,8.838019E2,2.1969324E3,2.209337E4,2.4752585E3,1.5795374E3,1.0868452E3,3.2885027E4],"categories":[],"categories_nodes":[],"categories_segments":[],"categories_sizes":[],"default_left":[0,0,0,0,0,0,0,0,0,0,0,0,0,0,0,0,0,0,0,0,0,0,0,0,0,0,0,0,0,0,0,0,0,0,0,0,0,0,0,0,0,0,0,0,0,0,0,0,0,0,0,0,0,0,0,0,0,0,0,0,0],"id":3,"left_children":[1,3,5,7,9,11,13,15,17,19,21,23,25,27,29,31,33,35,37,39,41,43,45,47,49,51,53,55,-1,57,59,-1,-1,-1,-1,-1,-1,-1,-1,-1,-1,-1,-1,-1,-1,-1,-1,-1,-1,-1,-1,-1,-1,-1,-1,-1,-1,-1,-1,-1,-1],"loss_changes":[6.743895E12,1.8563279E12,1.0296838E12,4.2587233E11,2.1425776E11,3.875862E11,1.2292124E12,7.310436E10,4.000038E10,4.4648104E10,3.5196764E10,6.022837E10,3.670278E10,1.8000921E12,2.3613119E11,1.1245978E10,1.109033E10,9.21908E9,3.3739223E10,1.0575024E10,5.6048845E9,3.3308017E9,4.521132E9,6.7704586E9,8.3803505E9,4.777312E9,4.2084598E9,1.5137102E11,0E0,6.140474E10,2.0206204E11,0E0,0E0,0E0,0E0,0E0,0E0,0E0,0E0,0E0,0E0,0E0,0E0,0E0,0E0,0E0,0E0,0E0,0E0,0E0,0E0,0E0,0E0,0E0,0E0,0E0,0E0,0E0,0E0,0E0,0E0],"parents":[2147483647,0,0,1,1,2,2,3,3,4,4,5,5,6,6,7,7,8,8,9,9,10,10,11,11,12,12,13,13,14,14,15,15,16,16,17,17,18,18,19,19,20,20,21,21,22,22,23,23,24,24,25,25,26,26,27,27,29,29,30,30],"right_children":[2,4,6,8,10,12,14,16,18,20,22,24,26,28,30,32,34,36,38,40,42,44,46,48,50,52,54,56,-1,58,60,-1,-1,-1,-1,-1,-1,-1,-1,-1,-1,-1,-1,-1,-1,-1,-1,-1,-1,-1,-1,-1,-1,-1,-1,-1,-1,-1,-1,-1,-1],"split_conditions":[7.025E3,3.3E3,1.55E4,1.75E3,4.4E3,1.04E4,1E1,1.31E3,2.375E3,4.1E3,5.751E3,8.775E3,1.36E4,9E0,1.6E1,7E2,1.61E3,2.275E3,1.55E4,3E3,5.025E3,5.025E3,6E3,7.74E3,9.5E3,1.26E4,1.4225E4,1.9E2,2.6679484E4,1.262E3,6E5,-1.6271976E2,-1.3395378E2,-1.0937593E2,-8.376096E1,-6.0140743E1,-3.5803963E1,-6.4460196E0,7.492415E3,4.723709E0,5.3417774E1,9.836417E1,1.4461526E2,1.4006145E2,1.7271082E2,2.1753189E2,2.6377927E2,3.136879E2,3.921543E2,4.5662595E2,5.267344E2,6.311003E2,7.179219E2,8.000047E2,8.838019E2,2.1969324E3,2.209337E4,2.4752585E3,1.5795374E3,1.0868452E3,3.2885027E4],"split_indices":[7,7,6,6,6,6,0,7,6,7,7,7,7,0,0,6,7,7,6,6,7,7,6,6,6,7,6,3,0,2,6,0,0,0,0,0,0,0,0,0,0,0,0,0,0,0,0,0,0,0,0,0,0,0,0,0,0,0,0,0,0],"split_type":[0,0,0,0,0,0,0,0,0,0,0,0,0,0,0,0,0,0,0,0,0,0,0,0,0,0,0,0,0,0,0,0,0,0,0,0,0,0,0,0,0,0,0,0,0,0,0,0,0,0,0,0,0,0,0,0,0,0,0,0,0],"sum_hessian":[3.193372E6,3.006533E6,1.86839E5,2.289818E6,7.16715E5,1.74169E5,1.267E4,1.279473E6,1.010345E6,5.05206E5,2.11509E5,1.24028E5,5.0141E4,1.48E2,1.2522E4,6.01855E5,6.77618E5,6.24621E5,3.85724E5,3.04845E5,2.00361E5,1.25877E5,8.5632E4,4.9769E4,7.4259E4,2.5764E4,2.4377E4,1.02E2,4.6E1,3.151E3,9.371E3,2.07401E5,3.94454E5,3.23133E5,3.54485E5,2.94684E5,3.29937E5,3.85719E5,5E0,5.4256E4,2.50589E5,1.69358E5,3.1003E4,6.7967E4,5.791E4,4.7384E4,3.8248E4,3.3314E4,1.6455E4,4.7572E4,2.6687E4,1.3946E4,1.1818E4,1.2095E4,1.2282E4,9.9E1,3E0,1.81E3,1.341E3,9.37E3,1E0],"tree_param":{"num_deleted":"0","num_feature":"13","num_nodes":"61","size_leaf_vector":"1"}},{"base_weights":[9.679115E-2,-3.265489E2,5.244713E3,-7.388992E2,8.8606433E2,4.6732017E3,1.311426E4,-1.1525243E3,-3.888062E2,5.0727667E2,1.5629187E3,3.815744E3,6.8033247E3,9.712194E4,1.2107294E4,-1.3718861E3,-1.0044574E3,-6.1309753E2,-1.9568602E2,2.6361432E2,7.759483E2,1.2585018E3,2.004083E3,3.0567773E3,4.3737935E3,6.0562944E3,7.5581177E3,2.7154277E4,2.4523752E4,1.778659E4,9.32395E3,-1.5292294E2,-1.299436E2,-1.0734357E2,-8.654505E1,-7.1575554E1,-4.7972103E1,-2.945227E1,-3.4185486E0,-4.815595E0,3.2125454E1,6.2674786E1,9.3486015E1,7.513399E1,1.338263E2,1.7312439E2,2.2212749E2,2.7770364E2,3.4842902E2,4.1297604E2,4.7476474E2,5.596413E2,6.363314E2,7.172325E2,7.954289E2,1.9794362E3,2.0436365E4,1.7639182E3,3.1240775E4,-1.6242941E3,9.331965E2],"categories":[],"categories_nodes":[],"categories_segments":[],"categories_sizes":[],"default_left":[0,0,0,0,0,0,0,0,0,0,0,0,0,0,0,0,0,0,0,0,0,0,0,0,0,0,0,0,0,0,0,0,0,0,0,0,0,0,0,0,0,0,0,0,0,0,0,0,0,0,0,0,0,0,0,0,0,0,0,0,0],"id":4,"left_children":[1,3,5,7,9,11,13,15,17,19,21,23,25,27,29,31,33,35,37,39,41,43,45,47,49,51,53,55,-1,57,59,-1,-1,-1,-1,-1,-1,-1,-1,-1,-1,-1,-1,-1,-1,-1,-1,-1,-1,-1,-1,-1,-1,-1,-1,-1,-1,-1,-1,-1,-1],"loss_changes":[5.4706685E12,1.5031375E12,8.420081E11,3.248465E11,1.9557902E11,3.1879515E11,1.0711238E12,3.3399505E10,5.262621E10,3.2019931E10,3.6757897E10,5.2699726E10,2.8201452E10,1.5478358E12,1.9785384E11,4.722E9,5.885919E9,7.6962365E9,1.0420863E10,4.609415E9,5.5147725E9,6.5508147E9,6.6188083E9,6.2975836E9,6.5235845E9,3.5200696E9,3.7510185E9,1.3029213E11,0E0,1.7337627E11,1.8745917E9,0E0,0E0,0E0,0E0,0E0,0E0,0E0,0E0,0E0,0E0,0E0,0E0,0E0,0E0,0E0,0E0,0E0,0E0,0E0,0E0,0E0,0E0,0E0,0E0,0E0,0E0,0E0,0E0,0E0,0E0],"parents":[2147483647,0,0,1,1,2,2,3,3,4,4,5,5,6,6,7,7,8,8,9,9,10,10,11,11,12,12,13,13,14,14,15,15,16,16,17,17,18,18,19,19,20,20,21,21,22,22,23,23,24,24,25,25,26,26,27,27,29,29,30,30],"right_children":[2,4,6,8,10,12,14,16,18,20,22,24,26,28,30,32,34,36,38,40,42,44,46,48,50,52,54,56,-1,58,60,-1,-1,-1,-1,-1,-1,-1,-1,-1,-1,-1,-1,-1,-1,-1,-1,-1,-1,-1,-1,-1,-1,-1,-1,-1,-1,-1,-1,-1,-1],"split_conditions":[6.4E3,3.2E3,1.55E4,1.5E3,4.631E3,1.12E4,1E1,1.15E3,2.31E3,3.5E3,5.548E3,8.775E3,1.36E4,9E0,2.6E1,6E2,1.55E3,1.87E3,2.5E3,2.5E3,3.9E3,3.52E3,6.1E3,7.925E3,9.5E3,1.2E4,1.4225E4,1.9E2,2.4523752E4,6E5,3.5E2,-1.5292294E2,-1.299436E2,-1.0734357E2,-8.654505E1,-7.1575554E1,-4.7972103E1,-2.945227E1,-3.4185486E0,-4.815595E0,3.2125454E1,6.2674786E1,9.3486015E1,7.513399E1,1.338263E2,1.7312439E2,2.2212749E2,2.7770364E2,3.4842902E2,4.1297604E2,4.7476474E2,5.596413E2,6.363314E2,7.172325E2,7.954289E2,1.9794362E3,2.0436365E4,1.7639182E3,3.1240775E4,-1.6242941E3,9.331965E2],"split_indices":[6,7,6,6,7,7,0,7,7,6,7,7,7,0,0,6,7,6,6,6,6,6,7,7,6,6,6,3,0,6,7,0,0,0,0,0,0,0,0,0,0,0,0,0,0,0,0,0,0,0,0,0,0,0,0,0,0,0,0,0,0],"split_type":[0,0,0,0,0,0,0,0,0,0,0,0,0,0,0,0,0,0,0,0,0,0,0,0,0,0,0,0,0,0,0,0,0,0,0,0,0,0,0,0,0,0,0,0,0,0,0,0,0,0,0,0,0,0,0,0,0,0,0,0,0],"sum_hessian":[3.193372E6,3.006144E6,1.87228E5,2.243306E6,7.62838E5,1.74553E5,1.2675E4,1.028344E6,1.214962E6,4.89116E5,2.73722E5,1.24457E5,5.0096E4,1.49E2,1.2526E4,4.144E5,6.13944E5,5.62115E5,6.52847E5,2.56497E5,2.32619E5,1.61965E5,1.11757E5,5.2738E4,7.1719E4,2.5182E4,2.4914E4,1.02E2,4.7E1,4.118E3,8.408E3,1.30647E5,2.83753E5,4.10325E5,2.03619E5,3.17633E5,2.44482E5,4.04994E5,2.47853E5,4.0022E4,2.16475E5,1.19978E5,1.12641E5,2.2012E4,1.39953E5,4.9537E4,6.222E4,3.1883E4,2.0855E4,4.3401E4,2.8318E4,1.0089E4,1.5093E4,1.2632E4,1.2282E4,9.9E1,3E0,4.117E3,1E0,2E0,8.406E3],"tree_param":{"num_deleted":"0","num_feature":"13","num_nodes":"61","size_leaf_vector":"1"}},{"base_weights":[1.1328617E-1,-3.1732523E2,4.375904E3,-7.289568E2,5.846337E2,3.3403643E3,7.8177812E3,-1.0720293E3,-4.4060812E2,2.1396161E2,1.1501019E3,2.4014678E3,4.01533E3,2.872539E4,7.427957E3,-1.2619047E3,-9.564421E2,-6.395557E2,-2.9367007E2,-1.33504095E1,4.066215E2,9.395797E2,1.5856416E3,2.3960635E3,6.454664E4,3.7315864E3,4.79037E3,2.1234602E5,1.852641E4,6.8712476E3,1.372233E4,-1.3826013E2,-1.19501854E2,-1.0054502E2,-8.489928E1,-7.000713E1,-5.2697334E1,-3.7287224E1,-1.8842863E1,-2.9636347E1,2.56575E0,2.521032E1,5.7664837E1,8.10143E1,1.1592368E2,6.809508E1,1.6313649E2,2.1404332E2,2.710256E2,2.1738842E4,-9.4994006E2,3.493659E2,3.9740002E2,4.4669382E2,5.1873553E2,4.3008017E2,2.1668102E4,5.828683E2,2.159244E3,6.1711566E2,7.653788E2,1.3576748E3,2.9678734E4],"categories":[],"categories_nodes":[],"categories_segments":[],"categories_sizes":[],"default_left":[0,0,0,0,0,0,0,0,0,0,0,0,0,0,0,0,0,0,0,0,0,0,0,0,0,0,0,0,0,0,0,0,0,0,0,0,0,0,0,0,0,0,0,0,0,0,0,0,0,0,0,0,0,0,0,0,0,0,0,0,0,0,0],"id":5,"left_children":[1,3,5,7,9,11,13,15,17,19,21,23,25,27,29,31,33,35,37,39,41,43,45,47,49,51,53,55,57,59,61,-1,-1,-1,-1,-1,-1,-1,-1,-1,-1,-1,-1,-1,-1,-1,-1,-1,-1,-1,-1,-1,-1,-1,-1,-1,-1,-1,-1,-1,-1,-1,-1],"loss_changes":[4.435738E12,1.1054273E12,7.698123E11,2.0223872E11,1.9556044E11,1.0521294E11,4.0692666E11,2.048865E10,3.247127E10,2.4681155E10,3.387179E10,2.3168418E10,2.122462E10,1.7077531E12,1.717523E11,2.8502262E9,3.0551245E9,3.2145244E9,5.3254267E9,2.8542019E9,8.0138936E9,7.0800507E9,4.978442E9,5.5714447E9,6.9969035E10,4.0646738E9,3.3001308E9,4.2358014E10,3.36278E10,2.4637735E10,1.601477E11,0E0,0E0,0E0,0E0,0E0,0E0,0E0,0E0,0E0,0E0,0E0,0E0,0E0,0E0,0E0,0E0,0E0,0E0,0E0,0E0,0E0,0E0,0E0,0E0,0E0,0E0,0E0,0E0,0E0,0E0,0E0,0E0],"parents":[2147483647,0,0,1,1,2,2,3,3,4,4,5,5,6,6,7,7,8,8,9,9,10,10,11,11,12,12,13,13,14,14,15,15,16,16,17,17,18,18,19,19,20,20,21,21,22,22,23,23,24,24,25,25,26,26,27,27,28,28,29,29,30,30],"right_children":[2,4,6,8,10,12,14,16,18,20,22,24,26,28,30,32,34,36,38,40,42,44,46,48,50,52,54,56,58,60,62,-1,-1,-1,-1,-1,-1,-1,-1,-1,-1,-1,-1,-1,-1,-1,-1,-1,-1,-1,-1,-1,-1,-1,-1,-1,-1,-1,-1,-1,-1,-1,-1],"split_conditions":[6E3,2.85E3,1.26E4,1.4E3,4.2E3,8.265E3,2E0,1.045E3,2.12E3,3E3,5.25E3,1.55E4,9.9E3,1E1,6E0,6E2,1.2E3,1.8E3,2.3E3,2E3,3.7E3,4.31E3,2.4E3,7.025E3,1E1,9.28E3,1.12E4,2E0,1.55E4,1.4225E4,6E5,-1.3826013E2,-1.19501854E2,-1.0054502E2,-8.489928E1,-7.000713E1,-5.2697334E1,-3.7287224E1,-1.8842863E1,-2.9636347E1,2.56575E0,2.521032E1,5.7664837E1,8.10143E1,1.1592368E2,6.809508E1,1.6313649E2,2.1404332E2,2.710256E2,2.1738842E4,-9.4994006E2,3.493659E2,3.9740002E2,4.4669382E2,5.1873553E2,4.3008017E2,2.1668102E4,5.828683E2,2.159244E3,6.1711566E2,7.653788E2,1.3576748E3,2.9678734E4],"split_indices":[6,7,7,6,7,7,4,7,7,6,7,6,6,0,4,6,6,6,6,6,7,6,6,7,0,7,7,0,6,6,6,0,0,0,0,0,0,0,0,0,0,0,0,0,0,0,0,0,0,0,0,0,0,0,0,0,0,0,0,0,0,0,0],"split_type":[0,0,0,0,0,0,0,0,0,0,0,0,0,0,0,0,0,0,0,0,0,0,0,0,0,0,0,0,0,0,0,0,0,0,0,0,0,0,0,0,0,0,0,0,0,0,0,0,0,0,0,0,0,0,0,0,0,0,0,0,0,0,0],"sum_hessian":[3.193372E6,2.977381E6,2.15991E5,2.044378E6,9.33003E5,1.66038E5,4.9953E4,9.33597E5,1.110781E6,5.63574E5,3.69429E5,6.9444E4,9.6594E4,9.13E2,4.904E4,3.5327E5,5.80327E5,4.71877E5,6.38904E5,2.58537E5,3.05037E5,2.49051E5,1.20378E5,6.9439E4,5E0,7.0712E4,2.5882E4,4.7E1,8.66E2,4.5057E4,3.983E3,1.25958E5,2.27312E5,3.98542E5,1.81785E5,3.06904E5,1.64973E5,3.6455E5,2.74354E5,3.1317E4,2.2722E5,1.59808E5,1.45229E5,1.56711E5,9.234E4,5.792E3,1.14586E5,3.8292E4,3.1147E4,1E0,4E0,3.5694E4,3.5018E4,1.4269E4,1.1613E4,1E0,4.6E1,1.69E2,6.97E2,2.3786E4,2.1271E4,3.982E3,1E0],"tree_param":{"num_deleted":"0","num_feature":"13","num_nodes":"63","size_leaf_vector":"1"}},{"base_weights":[1.2701043E-1,-2.7378134E2,4.115061E3,-5.996711E2,6.9758496E2,3.665372E3,1.0738124E4,-9.1660114E2,-2.9400732E2,4.018155E2,1.2538429E3,2.9988882E3,5.4794883E3,7.785406E4,9.938714E3,-1.1008937E3,-7.7243646E2,-4.10402E2,-9.351692E1,4.0106744E2,6.1556793E4,1.0440369E3,1.6142806E3,2.2564216E3,3.4257405E3,4.880198E3,6.1126504E3,2.3426996E4,1.9547395E4,9.894476E3,2.81948E4,-1.2632985E2,-1.0526906E2,-8.673164E1,-6.718157E1,-5.3272522E1,-3.0953922E1,-1.27729E1,3.041535E1,1.9349318E1,6.211039E1,2.06519E4,-8.7394476E2,9.5293236E1,1.22021194E2,1.4647697E2,1.8315991E2,1.9913396E2,2.4639197E2,3.169686E2,3.753141E2,4.5418112E2,5.119127E2,5.824301E2,6.38677E2,1.6609081E3,1.8801812E4,1.561353E3,7.9697766E2],"categories":[],"categories_nodes":[],"categories_segments":[],"categories_sizes":[],"default_left":[0,0,0,0,0,0,0,0,0,0,0,0,0,0,0,0,0,0,0,0,0,0,0,0,0,0,0,0,0,0,0,0,0,0,0,0,0,0,0,0,0,0,0,0,0,0,0,0,0,0,0,0,0,0,0,0,0,0,0],"id":6,"left_children":[1,3,5,7,9,11,13,15,17,19,21,23,25,27,29,31,33,35,37,39,41,43,45,47,49,51,53,55,-1,57,-1,-1,-1,-1,-1,-1,-1,-1,-1,-1,-1,-1,-1,-1,-1,-1,-1,-1,-1,-1,-1,-1,-1,-1,-1,-1,-1,-1,-1],"loss_changes":[3.5992992E12,9.477998E11,5.935362E11,2.1718355E11,1.2374734E11,2.256331E11,6.7906555E11,2.9242425E10,2.663211E10,2.2439698E10,1.9743244E10,4.324865E10,1.8996396E10,9.492746E11,1.4790387E11,3.7806408E9,5.8953564E9,8.908472E9,5.7031875E9,2.242814E10,6.2946644E10,2.6477527E9,3.118547E9,2.735784E9,7.253197E9,2.0599276E9,1.8897306E9,1.1246055E11,0E0,1.3771093E11,0E0,0E0,0E0,0E0,0E0,0E0,0E0,0E0,0E0,0E0,0E0,0E0,0E0,0E0,0E0,0E0,0E0,0E0,0E0,0E0,0E0,0E0,0E0,0E0,0E0,0E0,0E0,0E0,0E0],"parents":[2147483647,0,0,1,1,2,2,3,3,4,4,5,5,6,6,7,7,8,8,9,9,10,10,11,11,12,12,13,13,14,14,15,15,16,16,17,17,18,18,19,19,20,20,21,21,22,22,23,23,24,24,25,25,26,26,27,27,29,29],"right_children":[2,4,6,8,10,12,14,16,18,20,22,24,26,28,30,32,34,36,38,40,42,44,46,48,50,52,54,56,-1,58,-1,-1,-1,-1,-1,-1,-1,-1,-1,-1,-1,-1,-1,-1,-1,-1,-1,-1,-1,-1,-1,-1,-1,-1,-1,-1,-1,-1,-1],"split_conditions":[6.919E3,2.8E3,1.55E4,1.86E3,4.6E3,1.04E4,1E1,1E3,2.52E3,1.55E4,5.548E3,8.265E3,1.36E4,9E0,6E5,7.5E2,1.3E3,2E3,4E3,3.71E3,1E1,4.7E3,5.8E3,6.75E3,9.6E3,1.2E4,1.46E4,1.9E2,1.9547395E4,1.6E1,2.81948E4,-1.2632985E2,-1.0526906E2,-8.673164E1,-6.718157E1,-5.3272522E1,-3.0953922E1,-1.27729E1,3.041535E1,1.9349318E1,6.211039E1,2.06519E4,-8.7394476E2,9.5293236E1,1.22021194E2,1.4647697E2,1.8315991E2,1.9913396E2,2.4639197E2,3.169686E2,3.753141E2,4.5418112E2,5.119127E2,5.824301E2,6.38677E2,1.6609081E3,1.8801812E4,1.561353E3,7.9697766E2],"split_indices":[7,6,6,7,7,6,0,6,7,6,7,7,7,0,6,7,6,6,7,7,0,6,6,6,7,6,7,3,0,0,0,0,0,0,0,0,0,0,0,0,0,0,0,0,0,0,0,0,0,0,0,0,0,0,0,0,0,0,0],"split_type":[0,0,0,0,0,0,0,0,0,0,0,0,0,0,0,0,0,0,0,0,0,0,0,0,0,0,0,0,0,0,0,0,0,0,0,0,0,0,0,0,0,0,0,0,0,0,0,0,0,0,0,0,0,0,0,0,0,0,0],"sum_hessian":[3.193372E6,2.994074E6,1.99298E5,2.241919E6,7.52155E5,1.86628E5,1.267E4,1.100674E6,1.141245E6,4.91056E5,2.61099E5,1.36487E5,5.0141E4,1.48E2,1.2522E4,4.83099E5,6.17575E5,7.22055E5,4.1919E5,4.91051E5,5E0,1.65037E5,9.6062E4,4.9826E4,8.6661E4,2.5764E4,2.4377E4,1.02E2,4.6E1,1.2521E4,1E0,1.10564E5,3.72535E5,3.17851E5,2.99724E5,3.26311E5,3.95744E5,3.85984E5,3.3206E4,2.52682E5,2.38369E5,1E0,4E0,1.08787E5,5.625E4,5.6914E4,3.9148E4,2.1882E4,2.7944E4,4.8635E4,3.8026E4,1.0671E4,1.5093E4,1.1891E4,1.2486E4,9.9E1,3E0,3.151E3,9.37E3],"tree_param":{"num_deleted":"0","num_feature":"13","num_nodes":"59","size_leaf_vector":"1"}},{"base_weights":[1.4369659E-1,-2.5472372E2,3.5829539E3,-5.398994E2,6.095095E2,2.8655334E3,6.885036E3,-8.2314685E2,-2.6315988E2,2.9350742E2,9.9930334E2,2.1653542E3,3.5712153E3,2.651263E4,6.462159E3,-9.527608E2,-6.5218243E2,-3.676131E2,-8.4881454E1,2.9264886E2,5.8697438E4,8.282095E2,1.3497979E3,1.8472548E3,2.5514949E3,3.2467332E3,4.3745884E3,1.7634246E4,1.7113012E4,5.8374517E3,1.3117322E4,-1.0728175E2,-8.845861E1,-7.242871E1,-5.856861E1,-4.7856876E1,-2.7900549E1,-1.1624879E1,2.5383755E1,1.34991045E1,4.5024197E1,1.9619305E4,-8.040292E2,7.370815E1,9.9143456E1,1.1973419E2,1.5453633E2,1.1722581E2,1.9224063E2,2.3110767E2,2.7350305E2,6.6120186E1,3.2706595E2,4.150149E2,4.6583725E2,1.9648424E3,6.8916156E2,5.4888446E2,6.785447E2,1.2952885E3,2.678506E4],"categories":[],"categories_nodes":[],"categories_segments":[],"categories_sizes":[],"default_left":[0,0,0,0,0,0,0,0,0,0,0,0,0,0,0,0,0,0,0,0,0,0,0,0,0,0,0,0,0,0,0,0,0,0,0,0,0,0,0,0,0,0,0,0,0,0,0,0,0,0,0,0,0,0,0,0,0,0,0,0,0],"id":7,"left_children":[1,3,5,7,9,11,13,15,17,19,21,23,25,27,29,31,33,35,37,39,41,43,45,47,49,51,53,-1,55,57,59,-1,-1,-1,-1,-1,-1,-1,-1,-1,-1,-1,-1,-1,-1,-1,-1,-1,-1,-1,-1,-1,-1,-1,-1,-1,-1,-1,-1,-1,-1],"loss_changes":[2.9160026E12,7.3476545E11,5.0238928E11,1.7571073E11,9.111016E10,8.607839E10,3.1400237E11,2.4547164E10,2.1113987E10,2.0466336E10,1.9858457E10,1.0737746E10,2.2605332E10,1.1208402E12,1.5398076E11,5.1562414E9,2.2899753E9,7.0288835E9,4.450604E9,1.0149519E10,5.6634323E10,3.309437E9,3.2370033E9,2.430468E9,1.7366712E9,3.8216008E9,1.570472E9,0E0,1.935301E10,1.1158422E10,1.2969191E11,0E0,0E0,0E0,0E0,0E0,0E0,0E0,0E0,0E0,0E0,0E0,0E0,0E0,0E0,0E0,0E0,0E0,0E0,0E0,0E0,0E0,0E0,0E0,0E0,0E0,0E0,0E0,0E0,0E0,0E0],"parents":[2147483647,0,0,1,1,2,2,3,3,4,4,5,5,6,6,7,7,8,8,9,9,10,10,11,11,12,12,13,13,14,14,15,15,16,16,17,17,18,18,19,19,20,20,21,21,22,22,23,23,24,24,25,25,26,26,28,28,29,29,30,30],"right_children":[2,4,6,8,10,12,14,16,18,20,22,24,26,28,30,32,34,36,38,40,42,44,46,48,50,52,54,-1,56,58,60,-1,-1,-1,-1,-1,-1,-1,-1,-1,-1,-1,-1,-1,-1,-1,-1,-1,-1,-1,-1,-1,-1,-1,-1,-1,-1,-1,-1,-1,-1],"split_conditions":[6.6E3,2.8E3,1.32E4,1.9E3,4.25E3,9.04E3,2E0,1.1E3,2.52E3,1.55E4,5.4E3,7.025E3,1.04E4,1E1,6E0,9.25E2,1.375E3,1.99E3,3.8E3,3.55E3,1E1,4.5E3,5.5E3,4E3,8.265E3,2.73E3,1.26E4,1.7634246E4,1.8E1,1.6E4,6E5,-1.0728175E2,-8.845861E1,-7.242871E1,-5.856861E1,-4.7856876E1,-2.7900549E1,-1.1624879E1,2.5383755E1,1.34991045E1,4.5024197E1,1.9619305E4,-8.040292E2,7.370815E1,9.9143456E1,1.1973419E2,1.5453633E2,1.1722581E2,1.9224063E2,2.3110767E2,2.7350305E2,6.6120186E1,3.2706595E2,4.150149E2,4.6583725E2,1.9648424E3,6.8916156E2,5.4888446E2,6.785447E2,1.2952885E3,2.678506E4],"split_indices":[7,6,6,7,7,7,4,6,7,6,7,6,6,0,4,7,6,6,7,7,0,6,6,6,7,6,7,0,0,7,6,0,0,0,0,0,0,0,0,0,0,0,0,0,0,0,0,0,0,0,0,0,0,0,0,0,0,0,0,0,0],"split_type":[0,0,0,0,0,0,0,0,0,0,0,0,0,0,0,0,0,0,0,0,0,0,0,0,0,0,0,0,0,0,0,0,0,0,0,0,0,0,0,0,0,0,0,0,0,0,0,0,0,0,0,0,0,0,0,0,0,0,0,0,0],"sum_hessian":[3.193372E6,2.981295E6,2.12077E5,2.241617E6,7.39678E5,1.74226E5,3.7851E4,1.107782E6,1.133835E6,4.08507E5,3.31171E5,8.7456E4,8.677E4,7.97E2,3.7054E4,6.30087E5,4.77695E5,7.14947E5,4.18888E5,4.08502E5,5E0,2.22541E5,1.0863E5,4.7956E4,3.95E4,6.181E4,2.496E4,4.6E1,7.51E2,3.3876E4,3.178E3,2.28203E5,4.01884E5,2.29178E5,2.48517E5,3.1744E5,3.97507E5,3.83385E5,3.5503E4,2.0421E5,2.04292E5,1E0,4E0,1.42814E5,7.9727E4,6.1047E4,4.7583E4,4.806E3,4.315E4,1.7106E4,2.2394E4,5.67E2,6.1243E4,1.3946E4,1.1014E4,6.01E2,1.5E2,2.4773E4,9.103E3,3.177E3,1E0],"tree_param":{"num_deleted":"0","num_feature":"13","num_nodes":"61","size_leaf_vector":"1"}},{"base_weights":[1.5146698E-1,-2.316199E2,3.195047E3,-5.3219525E2,4.2699478E2,2.8474873E3,8.769489E3,-7.844495E2,-3.2017825E2,1.4729813E2,8.2906525E2,2.3265303E3,4.437989E3,6.614698E4,8.0817427E3,-9.2417267E2,-6.9939264E2,-4.662967E2,-2.122586E2,3.7499737E1,3.5680554E2,6.5521216E2,1.1127423E3,1.7547213E3,2.8008013E3,3.9563145E3,4.925398E3,2.0120006E4,1.6353515E4,8.0417593E3,2.5445807E4,-1.06647644E2,-8.8497284E1,-7.873553E1,-6.6123405E1,-4.6814922E1,1.7687296E2,-2.7319294E1,-1.3268298E1,-1.3605269E1,8.959858E0,2.902934E1,4.7237427E1,4.6052044E1,7.346107E1,1.0187015E2,1.3998979E2,1.6087366E2,2.1004443E2,2.5768674E2,3.0576132E2,3.6869638E2,4.1370352E2,4.9877457E2,3.1640637E2,1.3805795E3,1.7294531E4,1.190069E3,6.1510333E2],"categories":[],"categories_nodes":[],"categories_segments":[],"categories_sizes":[],"default_left":[0,0,0,0,0,0,0,0,0,0,0,0,0,0,0,0,0,0,0,0,0,0,0,0,0,0,0,0,0,0,0,0,0,0,0,0,0,0,0,0,0,0,0,0,0,0,0,0,0,0,0,0,0,0,0,0,0,0,0],"id":8,"left_children":[1,3,5,7,9,11,13,15,17,19,21,23,25,27,29,31,33,35,37,39,41,43,45,47,49,51,53,55,-1,57,-1,-1,-1,-1,-1,-1,-1,-1,-1,-1,-1,-1,-1,-1,-1,-1,-1,-1,-1,-1,-1,-1,-1,-1,-1,-1,-1,-1,-1],"loss_changes":[2.3646466E12,5.8941276E11,4.184492E11,1.0933764E11,1.049234E11,1.6845478E11,4.9967464E11,1.1094589E10,1.751588E10,1.265743E10,1.887663E10,4.1529508E10,1.1757421E10,6.69082E11,1.2135727E11,1.9697172E9,1.9474022E9,1.9545784E9,3.097942E9,3.2644111E9,1.454252E9,3.6682957E9,3.9261635E9,3.5012772E9,4.806607E9,1.2131369E9,2.7218412E9,9.7004405E10,0E0,9.1318714E10,0E0,0E0,0E0,0E0,0E0,0E0,0E0,0E0,0E0,0E0,0E0,0E0,0E0,0E0,0E0,0E0,0E0,0E0,0E0,0E0,0E0,0E0,0E0,0E0,0E0,0E0,0E0,0E0,0E0],"parents":[2147483647,0,0,1,1,2,2,3,3,4,4,5,5,6,6,7,7,8,8,9,9,10,10,11,11,12,12,13,13,14,14,15,15,16,16,17,17,18,18,19,19,20,20,21,21,22,22,23,23,24,24,25,25,26,26,27,27,29,29],"right_children":[2,4,6,8,10,12,14,16,18,20,22,24,26,28,30,32,34,36,38,40,42,44,46,48,50,52,54,56,-1,58,-1,-1,-1,-1,-1,-1,-1,-1,-1,-1,-1,-1,-1,-1,-1,-1,-1,-1,-1,-1,-1,-1,-1,-1,-1,-1,-1,-1,-1],"split_conditions":[6E3,2.85E3,1.55E4,1.4E3,4.1E3,1.12E4,1E1,1.045E3,2.12E3,3.2E3,5.025E3,8.265E3,1.36E4,9E0,6E5,5E2,1E3,2.925E3,2.29E3,2.4E3,3.9E3,4E3,6.1E3,7.43E3,9.15E3,1.2E4,6E0,1.9E2,1.6353515E4,2.6E1,2.5445807E4,-1.06647644E2,-8.8497284E1,-7.873553E1,-6.6123405E1,-4.6814922E1,1.7687296E2,-2.7319294E1,-1.3268298E1,-1.3605269E1,8.959858E0,2.902934E1,4.7237427E1,4.6052044E1,7.346107E1,1.0187015E2,1.3998979E2,1.6087366E2,2.1004443E2,2.5768674E2,3.0576132E2,3.6869638E2,4.1370352E2,4.9877457E2,3.1640637E2,1.3805795E3,1.7294531E4,1.190069E3,6.1510333E2],"split_indices":[6,7,6,6,7,7,0,7,7,6,7,7,7,0,6,6,6,6,6,6,7,6,7,7,6,6,4,3,0,0,0,0,0,0,0,0,0,0,0,0,0,0,0,0,0,0,0,0,0,0,0,0,0,0,0,0,0,0,0],"split_type":[0,0,0,0,0,0,0,0,0,0,0,0,0,0,0,0,0,0,0,0,0,0,0,0,0,0,0,0,0,0,0,0,0,0,0,0,0,0,0,0,0,0,0,0,0,0,0,0,0,0,0,0,0,0,0,0,0,0,0],"sum_hessian":[3.193372E6,2.977381E6,2.15991E5,2.044378E6,9.33003E5,2.03316E5,1.2675E4,9.33597E5,1.110781E6,5.50237E5,3.82766E5,1.53154E5,5.0162E4,1.49E2,1.2526E4,3.5327E5,5.80327E5,4.71877E5,6.38904E5,3.6103E5,1.89207E5,2.37324E5,1.45442E5,6.9439E4,8.3715E4,2.5234E4,2.4928E4,1.02E2,4.7E1,1.2525E4,1E0,7.6291E4,2.76979E5,1.75575E5,4.04752E5,4.71487E5,3.9E2,3.61832E5,2.77072E5,8.3355E4,2.77675E5,1.20094E5,6.9113E4,6.875E4,1.68574E5,1.09565E5,3.5877E4,4.8827E4,2.0612E4,4.4726E4,3.8989E4,1.0141E4,1.5093E4,2.4074E4,8.54E2,9.9E1,3E0,4.117E3,8.408E3],"tree_param":{"num_deleted":"0","num_feature":"13","num_nodes":"59","size_leaf_vector":"1"}},{"base_weights":[1.5668009E-1,-1.9304327E2,3.1090317E3,-4.2409818E2,5.6948956E2,2.7525261E3,7.770364E3,-6.568733E2,-1.8687854E2,3.86371E2,1.042419E3,2.263418E3,3.9692854E3,4.1426113E4,7.2209497E3,-7.8925555E2,-5.477275E2,-1.8715572E2,5.2636266E4,2.673487E2,5.944527E2,8.3843896E2,1.257927E3,1.8143455E3,2.5652761E3,3.5233706E3,4.4017495E3,1.2603871E4,1.4023998E5,7.1844863E3,2.4173516E4,-8.832047E1,-7.3117485E1,-5.71981E1,-3.3916283E1,-3.1223951E1,-7.415803E0,1.7820664E4,-8.1191376E2,-1.9470535E1,2.9029554E1,5.4491364E1,7.850022E1,6.8538445E1,8.8387314E1,1.13084305E2,1.399446E2,1.1658221E2,1.8658426E2,2.4253938E2,2.8137427E2,3.3698874E2,3.7257486E2,4.444317E2,1.996116E2,8.910092E2,1.599744E4,1.4307783E4,3.4307126E2,5.56573E2,1.0272256E3],"categories":[],"categories_nodes":[],"categories_segments":[],"categories_sizes":[],"default_left":[0,0,0,0,0,0,0,0,0,0,0,0,0,0,0,0,0,0,0,0,0,0,0,0,0,0,0,0,0,0,0,0,0,0,0,0,0,0,0,0,0,0,0,0,0,0,0,0,0,0,0,0,0,0,0,0,0,0,0,0,0],"id":9,"left_children":[1,3,5,7,9,11,13,15,17,19,21,23,25,27,29,31,33,35,37,39,41,43,45,47,49,51,53,55,57,59,-1,-1,-1,-1,-1,-1,-1,-1,-1,-1,-1,-1,-1,-1,-1,-1,-1,-1,-1,-1,-1,-1,-1,-1,-1,-1,-1,-1,-1,-1,-1],"loss_changes":[1.9180508E12,5.297123E11,3.104679E11,1.274105E11,6.0548186E10,1.0328565E11,2.4514953E11,1.6826794E10,1.6741761E10,1.248229E10,8.577663E9,1.6777806E10,9.581101E9,6.048644E11,1.0995912E11,2.8710339E9,3.228713E9,1.6152162E10,4.722136E10,3.399467E9,1.7307197E9,6.965985E8,1.7050337E9,1.6599941E9,2.566357E9,7.4868326E8,2.5777275E9,8.89374E10,1.8144756E10,6.522621E10,0E0,0E0,0E0,0E0,0E0,0E0,0E0,0E0,0E0,0E0,0E0,0E0,0E0,0E0,0E0,0E0,0E0,0E0,0E0,0E0,0E0,0E0,0E0,0E0,0E0,0E0,0E0,0E0,0E0,0E0,0E0],"parents":[2147483647,0,0,1,1,2,2,3,3,4,4,5,5,6,6,7,7,8,8,9,9,10,10,11,11,12,12,13,13,14,14,15,15,16,16,17,17,18,18,19,19,20,20,21,21,22,22,23,23,24,24,25,25,26,26,27,27,28,28,29,29],"right_children":[2,4,6,8,10,12,14,16,18,20,22,24,26,28,30,32,34,36,38,40,42,44,46,48,50,52,54,56,58,60,-1,-1,-1,-1,-1,-1,-1,-1,-1,-1,-1,-1,-1,-1,-1,-1,-1,-1,-1,-1,-1,-1,-1,-1,-1,-1,-1,-1,-1,-1,-1],"split_conditions":[7.025E3,3.35E3,1.6E4,1.6E3,4.5E3,1.04E4,1E1,1.23E3,1.55E4,3.8E3,5.548E3,8.775E3,1.32E4,9E0,6E5,7E2,2.2E3,2.41E3,1E1,1.53E3,4.85E3,4.85E3,6.25E3,4.5E3,9.5E3,1.26E4,6E0,1.9E2,4.7E2,1.28E2,2.4173516E4,-8.832047E1,-7.3117485E1,-5.71981E1,-3.3916283E1,-3.1223951E1,-7.415803E0,1.7820664E4,-8.1191376E2,-1.9470535E1,2.9029554E1,5.4491364E1,7.850022E1,6.8538445E1,8.8387314E1,1.13084305E2,1.399446E2,1.1658221E2,1.8658426E2,2.4253938E2,2.8137427E2,3.3698874E2,3.7257486E2,4.444317E2,1.996116E2,8.910092E2,1.599744E4,1.4307783E4,3.4307126E2,5.56573E2,1.0272256E3],"split_indices":[7,7,7,6,6,6,0,7,6,6,7,7,6,0,6,6,7,7,0,6,7,7,7,6,6,7,4,3,1,3,0,0,0,0,0,0,0,0,0,0,0,0,0,0,0,0,0,0,0,0,0,0,0,0,0,0,0,0,0,0,0],"split_type":[0,0,0,0,0,0,0,0,0,0,0,0,0,0,0,0,0,0,0,0,0,0,0,0,0,0,0,0,0,0,0,0,0,0,0,0,0,0,0,0,0,0,0,0,0,0,0,0,0,0,0,0,0,0,0,0,0,0,0,0,0],"sum_hessian":[3.193372E6,3.006533E6,1.86839E5,2.307376E6,6.99157E5,1.73566E5,1.3273E4,1.164597E6,1.142779E6,5.04007E5,1.9515E5,1.23803E5,4.9763E4,2.12E2,1.3061E4,5.26275E5,6.38322E5,1.142774E6,5E0,3.20617E5,1.8339E5,1.00259E5,9.4891E4,4.9769E4,7.4034E4,2.4505E4,2.5258E4,1.65E2,4.7E1,1.306E4,1E0,2.0105E5,3.25225E5,5.71824E5,6.6498E4,5.4238E5,6.00394E5,1E0,4E0,1.5169E4,3.05448E5,1.45553E5,3.7837E4,2.2953E4,7.7306E4,5E4,4.4891E4,3.663E3,4.6106E4,4.7374E4,2.666E4,1.3946E4,1.0559E4,2.4818E4,4.4E2,1.62E2,3E0,4.6E1,1E0,8.57E3,4.49E3],"tree_param":{"num_deleted":"0","num_feature":"13","num_nodes":"61","size_leaf_vector":"1"}},{"base_weights":[1.6500898E-1,-1.7407262E2,2.7977207E3,-3.848696E2,5.025101E2,2.4824985E3,7.138244E3,-5.981016E2,-1.74534E2,3.0738107E2,8.9202185E2,2.0340824E3,3.5964675E3,5.4351266E4,6.572339E3,-6.991195E2,-4.723138E2,-2.4906133E2,-2.3608418E1,1.6552974E2,4.4958698E2,7.831235E2,1.2282281E3,1.6084613E3,2.3127417E3,3.2097048E3,3.9872463E3,1.4073542E4,1.2780156E5,6.5361963E3,2.296484E4,-8.1103226E1,-6.5787926E1,-5.5209698E1,-4.367226E1,-3.1576355E1,-1.6247633E1,-3.319018E0,8.369968E1,1.0541279E1,2.5933527E1,3.7779736E1,5.260496E1,6.778838E1,9.033558E1,1.21993286E2,8.878298E2,1.4152383E2,1.7694012E2,2.1904915E2,2.6115283E2,3.2659885E2,2.5542363E2,4.040775E2,2.4558072E2,8.287388E2,1.4797632E4,1.3847083E4,-2.3175859E2,9.81451E2,4.9299844E2],"categories":[],"categories_nodes":[],"categories_segments":[],"categories_sizes":[],"default_left":[0,0,0,0,0,0,0,0,0,0,0,0,0,0,0,0,0,0,0,0,0,0,0,0,0,0,0,0,0,0,0,0,0,0,0,0,0,0,0,0,0,0,0,0,0,0,0,0,0,0,0,0,0,0,0,0,0,0,0,0,0],"id":10,"left_children":[1,3,5,7,9,11,13,15,17,19,21,23,25,27,29,31,33,35,37,39,41,43,45,47,49,51,53,55,57,59,-1,-1,-1,-1,-1,-1,-1,-1,-1,-1,-1,-1,-1,-1,-1,-1,-1,-1,-1,-1,-1,-1,-1,-1,-1,-1,-1,-1,-1,-1,-1],"loss_changes":[1.5565765E12,4.2874143E11,2.561544E11,1.0279836E11,5.4275703E10,8.718628E10,3.383212E11,1.4462321E10,1.2978659E10,9.597223E9,8.725217E9,1.4757429E10,7.558791E9,4.41963E11,9.949902E10,2.9128458E9,1.4392689E9,4.461048E9,3.1453266E9,1.3431639E9,1.303978E9,2.2773596E9,3.6894884E9,1.5289385E9,2.7415347E9,9.2071526E8,2.0325007E9,7.470231E10,7.389951E10,6.590936E10,0E0,0E0,0E0,0E0,0E0,0E0,0E0,0E0,0E0,0E0,0E0,0E0,0E0,0E0,0E0,0E0,0E0,0E0,0E0,0E0,0E0,0E0,0E0,0E0,0E0,0E0,0E0,0E0,0E0,0E0,0E0],"parents":[2147483647,0,0,1,1,2,2,3,3,4,4,5,5,6,6,7,7,8,8,9,9,10,10,11,11,12,12,13,13,14,14,15,15,16,16,17,17,18,18,19,19,20,20,21,21,22,22,23,23,24,24,25,25,26,26,27,27,28,28,29,29],"right_children":[2,4,6,8,10,12,14,16,18,20,22,24,26,28,30,32,34,36,38,40,42,44,46,48,50,52,54,56,58,60,-1,-1,-1,-1,-1,-1,-1,-1,-1,-1,-1,-1,-1,-1,-1,-1,-1,-1,-1,-1,-1,-1,-1,-1,-1,-1,-1,-1,-1,-1,-1],"split_conditions":[6.4E3,2.85E3,1.55E4,1.925E3,4.8E3,1.12E4,1E1,1.09E3,2.625E3,3.9E3,6.1E3,8.3E3,1.36E4,4E0,6E5,6E2,1.45E3,2.08E3,2E2,3.3E3,4E3,4.8E3,1.6E4,7.43E3,9.98E3,6E0,6E0,1.42E2,6E0,2.6E1,2.296484E4,-8.1103226E1,-6.5787926E1,-5.5209698E1,-4.367226E1,-3.1576355E1,-1.6247633E1,-3.319018E0,8.369968E1,1.0541279E1,2.5933527E1,3.7779736E1,5.260496E1,6.778838E1,9.033558E1,1.21993286E2,8.878298E2,1.4152383E2,1.7694012E2,2.1904915E2,2.6115283E2,3.2659885E2,2.5542363E2,4.040775E2,2.4558072E2,8.287388E2,1.4797632E4,1.3847083E4,-2.3175859E2,9.81451E2,4.9299844E2],"split_indices":[6,6,6,7,7,7,0,6,7,7,7,6,7,0,6,6,7,6,3,6,6,6,7,7,7,4,4,3,8,0,0,0,0,0,0,0,0,0,0,0,0,0,0,0,0,0,0,0,0,0,0,0,0,0,0,0,0,0,0,0,0],"split_type":[0,0,0,0,0,0,0,0,0,0,0,0,0,0,0,0,0,0,0,0,0,0,0,0,0,0,0,0,0,0,0,0,0,0,0,0,0,0,0,0,0,0,0,0,0,0,0,0,0,0,0,0,0,0,0,0,0,0,0,0,0],"sum_hessian":[3.193372E6,3.006144E6,1.87228E5,2.292035E6,7.14109E5,1.74553E5,1.2675E4,1.13818E6,1.153855E6,4.7577E5,2.38339E5,1.24457E5,5.0096E4,1.49E2,1.2526E4,6.31239E5,5.06941E5,7.72428E5,3.81427E5,2.38183E5,2.37587E5,1.8003E5,5.8309E4,4.9246E4,7.5211E4,2.5182E4,2.4914E4,9.7E1,5.2E1,1.2525E4,1E0,1.69972E5,4.61267E5,1.56379E5,3.50562E5,4.36308E5,3.3612E5,3.77228E5,4.199E3,1.45158E5,9.3025E4,1.22541E5,1.15046E5,9.6004E4,8.4026E4,5.8247E4,6.2E1,2.2383E4,2.6863E4,5.3379E4,2.1832E4,2.3187E4,1.995E3,2.4071E4,8.43E2,9.4E1,3E0,4.8E1,4E0,4.117E3,8.408E3],"tree_param":{"num_deleted":"0","num_feature":"13","num_nodes":"61","size_leaf_vector":"1"}},{"base_weights":[1.663132E-1,-1.6202199E2,2.436726E3,-3.615487E2,3.986722E2,2.1601746E3,6.312224E3,-5.598513E2,-1.9311304E2,1.8935432E2,6.868332E2,1.7751213E3,3.2144778E3,3.3716527E4,5.8648633E3,-6.748089E2,-4.8113638E2,-2.961265E2,-1.0645001E2,1.8873148E2,4.7408105E4,5.758553E2,9.5695215E2,1.4106318E3,2.0814634E3,2.8543284E3,3.5637637E3,1.0520818E4,1.132326E5,5.831905E3,2.1816598E4,-7.940341E1,-6.4715904E1,-5.4180244E1,-4.3168327E1,-4.70931E1,-2.7225092E1,-1.2124345E1,1.7822636E1,8.095914E0,3.048067E1,1.6237278E4,-8.0593866E2,4.9917065E1,6.7841805E1,8.2586845E1,1.0464994E2,1.2678908E2,1.6243716E2,7.4603424E1,2.1002202E2,2.8943518E2,2.2568225E2,3.6001334E2,1.5088333E2,7.355481E2,1.368781E4,1.1552201E4,2.815262E2,4.8381543E2,9.5837805E2],"categories":[],"categories_nodes":[],"categories_segments":[],"categories_sizes":[],"default_left":[0,0,0,0,0,0,0,0,0,0,0,0,0,0,0,0,0,0,0,0,0,0,0,0,0,0,0,0,0,0,0,0,0,0,0,0,0,0,0,0,0,0,0,0,0,0,0,0,0,0,0,0,0,0,0,0,0,0,0,0,0],"id":11,"left_children":[1,3,5,7,9,11,13,15,17,19,21,23,25,27,29,31,33,35,37,39,41,43,45,47,49,51,53,55,57,59,-1,-1,-1,-1,-1,-1,-1,-1,-1,-1,-1,-1,-1,-1,-1,-1,-1,-1,-1,-1,-1,-1,-1,-1,-1,-1,-1,-1,-1,-1,-1],"loss_changes":[1.2619624E12,3.349577E11,2.1359008E11,7.375831E10,4.7398478E10,7.551399E10,1.6253636E11,9.177104E9,1.0659779E10,1.3377803E10,9.91114E9,1.521202E10,6.249906E9,3.916727E11,9.012334E10,1.3583483E9,1.8058445E9,2.2767944E9,2.7310346E9,5.694116E9,3.9569437E10,1.8428887E9,1.1293245E9,1.8965053E9,1.8528993E9,5.7951846E8,1.8823905E9,6.5387114E10,1.180867E10,4.8650584E10,0E0,0E0,0E0,0E0,0E0,0E0,0E0,0E0,0E0,0E0,0E0,0E0,0E0,0E0,0E0,0E0,0E0,0E0,0E0,0E0,0E0,0E0,0E0,0E0,0E0,0E0,0E0,0E0,0E0,0E0,0E0],"parents":[2147483647,0,0,1,1,2,2,3,3,4,4,5,5,6,6,7,7,8,8,9,9,10,10,11,11,12,12,13,13,14,14,15,15,16,16,17,17,18,18,19,19,20,20,21,21,22,22,23,23,24,24,25,25,26,26,27,27,28,28,29,29],"right_children":[2,4,6,8,10,12,14,16,18,20,22,24,26,28,30,32,34,36,38,40,42,44,46,48,50,52,54,56,58,60,-1,-1,-1,-1,-1,-1,-1,-1,-1,-1,-1,-1,-1,-1,-1,-1,-1,-1,-1,-1,-1,-1,-1,-1,-1,-1,-1,-1,-1,-1,-1],"split_conditions":[6.919E3,2.7E3,1.6E4,1.77E3,4.325E3,1.04E4,1E1,9E2,2.31E3,1.55E4,5.548E3,8.775E3,1.32E4,9E0,6E5,6.8E2,1.2E3,1.22E3,4E3,3.55E3,1E1,4.5E3,5.5E3,7.925E3,3.52E3,6E0,6E0,1.9E2,4.7E2,6E0,2.1816598E4,-7.940341E1,-6.4715904E1,-5.4180244E1,-4.3168327E1,-4.70931E1,-2.7225092E1,-1.2124345E1,1.7822636E1,8.095914E0,3.048067E1,1.6237278E4,-8.0593866E2,4.9917065E1,6.7841805E1,8.2586845E1,1.0464994E2,1.2678908E2,1.6243716E2,7.4603424E1,2.1002202E2,2.8943518E2,2.2568225E2,3.6001334E2,1.5088333E2,7.355481E2,1.368781E4,1.1552201E4,2.815262E2,4.8381543E2,9.5837805E2],"split_indices":[7,6,7,7,7,6,0,6,7,6,7,7,6,0,6,7,6,6,7,7,0,6,6,7,6,4,4,3,1,4,0,0,0,0,0,0,0,0,0,0,0,0,0,0,0,0,0,0,0,0,0,0,0,0,0,0,0,0,0,0,0],"split_type":[0,0,0,0,0,0,0,0,0,0,0,0,0,0,0,0,0,0,0,0,0,0,0,0,0,0,0,0,0,0,0,0,0,0,0,0,0,0,0,0,0,0,0,0,0,0,0,0,0,0,0,0,0,0,0,0,0,0,0,0,0],"sum_hessian":[3.193372E6,2.994074E6,1.99298E5,2.208253E6,7.85821E5,1.86025E5,1.3273E4,1.014206E6,1.194047E6,4.55182E5,3.30639E5,1.36262E5,4.9763E4,2.12E2,1.3061E4,4.12204E5,6.02002E5,5.45558E5,6.48489E5,4.55177E5,5E0,2.34357E5,9.6282E4,6.2228E4,7.4034E4,2.4505E4,2.5258E4,1.65E2,4.7E1,1.306E4,1E0,7.7594E4,3.3461E5,2.70347E5,3.31655E5,6.5558E4,4.8E5,6.16455E5,3.2034E4,2.36031E5,2.19146E5,1E0,4E0,1.34099E5,1.00258E5,3.9082E4,5.72E4,3.7315E4,2.4913E4,1.026E3,7.3008E4,2.2963E4,1.542E3,2.4818E4,4.4E2,1.62E2,3E0,4.6E1,1E0,1.0327E4,2.733E3],"tree_param":{"num_deleted":"0","num_feature":"13","num_nodes":"61","size_leaf_vector":"1"}},{"base_weights":[1.7052132E-1,-1.4118477E2,2.2697683E3,-3.0992606E2,4.1596664E2,2.0126345E3,5.810432E3,-4.6368832E2,-1.1369489E2,2.6459146E2,7.0992847E2,1.6493527E3,2.91511E3,4.470094E4,5.3442876E3,-5.8542053E2,-3.851932E2,-1.7533292E2,-3.9254076E0,1.7165793E2,4.035775E2,6.08236E2,9.3095276E2,1.3638568E3,1.9238832E3,2.734976E3,3.4694414E3,1.1701101E4,1.0487611E5,5.311622E3,2.0725768E4,-6.623604E1,-5.4417E1,-4.537593E1,-3.1935688E1,-2.2252825E1,-1.1655196E1,-3.8765652E0,5.241172E0,-1.6878782E1,1.8717903E1,3.572363E1,4.787152E1,-1.409288E1,6.3284077E1,9.048546E1,1.4686702E2,1.2065182E2,1.5358708E2,1.8166069E2,2.1356847E2,2.4543887E2,2.8790128E2,3.4935812E2,2.2487708E2,6.739567E2,1.2661225E4,1.1371503E4,-2.7206186E2,8.662526E2,4.183959E2],"categories":[],"categories_nodes":[],"categories_segments":[],"categories_sizes":[],"default_left":[0,0,0,0,0,0,0,0,0,0,0,0,0,0,0,0,0,0,0,0,0,0,0,0,0,0,0,0,0,0,0,0,0,0,0,0,0,0,0,0,0,0,0,0,0,0,0,0,0,0,0,0,0,0,0,0,0,0,0,0,0],"id":12,"left_children":[1,3,5,7,9,11,13,15,17,19,21,23,25,27,29,31,33,35,37,39,41,43,45,47,49,51,53,55,57,59,-1,-1,-1,-1,-1,-1,-1,-1,-1,-1,-1,-1,-1,-1,-1,-1,-1,-1,-1,-1,-1,-1,-1,-1,-1,-1,-1,-1,-1,-1,-1],"loss_changes":[1.02449716E12,2.8262118E11,1.704461E11,6.961906E10,3.1095833E10,5.7223217E10,2.2955901E11,1.2361171E10,6.85854E9,5.958013E9,5.3383414E9,9.752052E9,4.992893E9,2.9663855E11,8.152285E10,1.6092365E9,3.5502653E9,1.800872E9,7.1548154E8,1.4607606E9,6.4343654E8,2.9988864E9,1.04904704E9,1.6494592E9,1.4376632E9,1.5212216E9,3.5407462E8,5.5019962E10,5.071451E10,4.7295627E10,0E0,0E0,0E0,0E0,0E0,0E0,0E0,0E0,0E0,0E0,0E0,0E0,0E0,0E0,0E0,0E0,0E0,0E0,0E0,0E0,0E0,0E0,0E0,0E0,0E0,0E0,0E0,0E0,0E0,0E0,0E0],"parents":[2147483647,0,0,1,1,2,2,3,3,4,4,5,5,6,6,7,7,8,8,9,9,10,10,11,11,12,12,13,13,14,14,15,15,16,16,17,17,18,18,19,19,20,20,21,21,22,22,23,23,24,24,25,25,26,26,27,27,28,28,29,29],"right_children":[2,4,6,8,10,12,14,16,18,20,22,24,26,28,30,32,34,36,38,40,42,44,46,48,50,52,54,56,58,60,-1,-1,-1,-1,-1,-1,-1,-1,-1,-1,-1,-1,-1,-1,-1,-1,-1,-1,-1,-1,-1,-1,-1,-1,-1,-1,-1,-1,-1,-1,-1],"split_conditions":[6.4E3,3.35E3,1.55E4,1.8E3,4.85E3,1.12E4,1E1,9.6E2,2.65E3,3.7E3,5.15E3,8.7E3,1.4225E4,4E0,6E5,8.5E2,1.55E3,2.15E3,2.73E3,1.53E3,4.105E3,2E3,7.43E3,7.925E3,9.98E3,1.26E4,6E0,1.42E2,6E0,1.6E1,2.0725768E4,-6.623604E1,-5.4417E1,-4.537593E1,-3.1935688E1,-2.2252825E1,-1.1655196E1,-3.8765652E0,5.241172E0,-1.6878782E1,1.8717903E1,3.572363E1,4.787152E1,-1.409288E1,6.3284077E1,9.048546E1,1.4686702E2,1.2065182E2,1.5358708E2,1.8166069E2,2.1356847E2,2.4543887E2,2.8790128E2,3.4935812E2,2.2487708E2,6.739567E2,1.2661225E4,1.1371503E4,-2.7206186E2,8.662526E2,4.183959E2],"split_indices":[6,7,6,6,7,7,0,6,7,6,6,6,6,0,6,7,7,6,6,6,6,6,7,7,7,7,4,3,8,0,0,0,0,0,0,0,0,0,0,0,0,0,0,0,0,0,0,0,0,0,0,0,0,0,0,0,0,0,0,0,0],"split_type":[0,0,0,0,0,0,0,0,0,0,0,0,0,0,0,0,0,0,0,0,0,0,0,0,0,0,0,0,0,0,0,0,0,0,0,0,0,0,0,0,0,0,0,0,0,0,0,0,0,0,0,0,0,0,0,0,0,0,0,0,0],"sum_hessian":[3.193372E6,3.006144E6,1.87228E5,2.307335E6,6.98809E5,1.74553E5,1.2675E4,1.293655E6,1.01368E6,4.61277E5,2.37532E5,1.24457E5,5.0096E4,1.49E2,1.2526E4,5.07149E5,7.86506E5,6.49161E5,3.64519E5,2.76438E5,1.84839E5,1.62685E5,7.4847E4,6.1013E4,6.3444E4,3.7814E4,1.2282E4,9.7E1,5.2E1,1.2525E4,1E0,1.76999E5,3.3015E5,3.85263E5,4.01243E5,3.60063E5,2.89098E5,2.25231E5,1.39288E5,1.2053E4,2.64385E5,1.14331E5,7.0508E4,5.173E3,1.57512E5,7.1385E4,3.462E3,3.187E4,2.9143E4,4.212E4,2.1324E4,1.2833E4,2.4981E4,1.2042E4,2.4E2,9.4E1,3E0,4.8E1,4E0,3.152E3,9.373E3],"tree_param":{"num_deleted":"0","num_feature":"13","num_nodes":"61","size_leaf_vector":"1"}},{"base_weights":[1.6862299E-1,-1.4005641E2,1.8552515E3,-3.1641483E2,2.4967528E2,1.5637881E3,4.185086E3,-4.566133E2,-1.8198886E2,9.140697E1,4.9916147E2,1.2102682E3,2.139496E3,1.6578484E4,3.7908452E3,-5.4813196E2,-3.9278293E2,-2.85902E2,-1.3619522E2,9.095199E1,4.2990355E4,4.1706543E2,6.9599457E2,1.0075959E3,1.5011278E3,1.8231667E3,2.4491125E3,9.308605E4,1.1582033E4,3.7747188E3,1.9689479E4,-6.3668762E1,-5.200175E1,-4.4110043E1,-3.5198616E1,-4.1160366E1,-2.6669687E1,-1.3888068E1,8.312998E1,2.9921157E0,2.2636885E1,1.4856838E4,-7.8389246E2,3.5961544E1,4.79185E1,6.0364895E1,7.731872E1,5.7432617E1,1.0465176E2,1.3788596E2,1.5933838E2,-1.6889227E2,1.8280835E2,-1.06411476E2,2.4673747E2,4.2482686E3,9.809876E3,1.8917346E3,8.7601935E2,3.227555E2,7.769054E2],"categories":[],"categories_nodes":[],"categories_segments":[],"categories_sizes":[],"default_left":[0,0,0,0,0,0,0,0,0,0,0,0,0,0,0,0,0,0,0,0,0,0,0,0,0,0,0,0,0,0,0,0,0,0,0,0,0,0,0,0,0,0,0,0,0,0,0,0,0,0,0,0,0,0,0,0,0,0,0,0,0],"id":13,"left_children":[1,3,5,7,9,11,13,15,17,19,21,23,25,27,29,31,33,35,37,39,41,43,45,47,49,51,53,55,57,59,-1,-1,-1,-1,-1,-1,-1,-1,-1,-1,-1,-1,-1,-1,-1,-1,-1,-1,-1,-1,-1,-1,-1,-1,-1,-1,-1,-1,-1,-1,-1],"loss_changes":[8.306894E11,2.0406344E11,1.5238981E11,3.852201E10,3.652196E10,4.0594375E10,1.21857016E11,5.844517E9,4.96547E9,1.1042028E10,5.8010583E9,7.2837366E9,7.427883E9,2.9288458E11,7.45702E10,1.0231644E9,1.1617321E9,7.7045555E8,1.8819656E9,4.6771384E9,3.3363345E10,9.039667E8,7.527588E8,1.2276941E9,5.702615E8,6.5132954E8,2.4629248E9,7.754547E9,1.4799725E10,5.2830405E10,0E0,0E0,0E0,0E0,0E0,0E0,0E0,0E0,0E0,0E0,0E0,0E0,0E0,0E0,0E0,0E0,0E0,0E0,0E0,0E0,0E0,0E0,0E0,0E0,0E0,0E0,0E0,0E0,0E0,0E0,0E0],"parents":[2147483647,0,0,1,1,2,2,3,3,4,4,5,5,6,6,7,7,8,8,9,9,10,10,11,11,12,12,13,13,14,14,15,15,16,16,17,17,18,18,19,19,20,20,21,21,22,22,23,23,24,24,25,25,26,26,27,27,28,28,29,29],"right_children":[2,4,6,8,10,12,14,16,18,20,22,24,26,28,30,32,34,36,38,40,42,44,46,48,50,52,54,56,58,60,-1,-1,-1,-1,-1,-1,-1,-1,-1,-1,-1,-1,-1,-1,-1,-1,-1,-1,-1,-1,-1,-1,-1,-1,-1,-1,-1,-1,-1,-1,-1],"split_conditions":[6.45E3,2.5E3,1.4225E4,1.74E3,4.1E3,9.6E3,2E0,9E2,2.05E3,1.55E4,4.8E3,7.74E3,1.12E4,1E1,6E5,5E2,1.2E3,1.05E3,2E2,3.55E3,1E1,4.631E3,5.548E3,4E3,8.7E3,8.5E2,2.5E3,1.8E-1,1.35E2,6E0,1.9689479E4,-6.3668762E1,-5.200175E1,-4.4110043E1,-3.5198616E1,-4.1160366E1,-2.6669687E1,-1.3888068E1,8.312998E1,2.9921157E0,2.2636885E1,1.4856838E4,-7.8389246E2,3.5961544E1,4.79185E1,6.0364895E1,7.731872E1,5.7432617E1,1.0465176E2,1.3788596E2,1.5933838E2,-1.6889227E2,1.8280835E2,-1.06411476E2,2.4673747E2,4.2482686E3,9.809876E3,1.8917346E3,8.7601935E2,3.227555E2,7.769054E2],"split_indices":[7,6,6,7,7,7,4,6,7,6,6,6,7,0,6,6,6,6,3,7,0,7,7,6,6,6,6,5,3,4,0,0,0,0,0,0,0,0,0,0,0,0,0,0,0,0,0,0,0,0,0,0,0,0,0,0,0,0,0,0,0],"split_type":[0,0,0,0,0,0,0,0,0,0,0,0,0,0,0,0,0,0,0,0,0,0,0,0,0,0,0,0,0,0,0,0,0,0,0,0,0,0,0,0,0,0,0,0,0,0,0,0,0,0,0,0,0,0,0,0,0,0,0,0,0],"sum_hessian":[3.193372E6,2.968951E6,2.24421E5,2.044011E6,9.2494E5,1.99469E5,2.4952E4,1.000522E6,1.043489E6,5.65929E5,3.59011E5,1.23584E5,7.5885E4,7.68E2,2.4184E4,4.11095E5,5.89427E5,3.1919E5,7.24299E5,5.65924E5,5E0,2.53347E5,1.05664E5,7.2836E4,5.0748E4,3.7539E4,3.8346E4,4.6E1,7.22E2,2.4183E4,1E0,9.9058E4,3.12037E5,2.69837E5,3.1959E5,4.2301E4,2.76889E5,7.22295E5,2.004E3,3.90108E5,1.75816E5,1E0,4E0,1.31624E5,1.21723E5,4.8114E4,5.755E4,6.005E3,6.6831E4,2.1831E4,2.8917E4,5.2E1,3.7487E4,1.98E2,3.8148E4,5E0,4.1E1,1.99E2,5.23E2,2.1271E4,2.912E3],"tree_param":{"num_deleted":"0","num_feature":"13","num_nodes":"61","size_leaf_vector":"1"}},{"base_weights":[1.6815957E-1,-1.1837137E2,1.7809911E3,-2.802311E2,2.5210887E2,1.5765682E3,4.6457036E3,-4.2368027E2,-1.675919E2,1.1352034E2,5.0443936E2,1.2500525E3,2.238067E3,2.5006043E4,4.313335E3,-4.8636435E2,-3.6516495E2,-1.6779028E2,4.6174914E4,3.314662E1,2.1084085E2,3.9901843E2,6.7739014E2,1.0155386E3,1.468508E3,1.986544E3,2.5986282E3,8.250906E3,8.242993E4,4.285023E3,1.8705006E4,-5.8852905E1,-4.646378E1,-3.9546047E1,-3.058573E1,-2.2867764E1,-8.1565895E0,1.4113997E4,-1.285134E3,-9.454336E0,6.4016147E0,1.7493603E1,4.1264175E1,3.4909985E1,4.662085E1,6.0956665E1,7.8895706E1,-1.562976E1,1.0327421E2,1.3332549E2,1.5486575E2,1.8745674E2,2.1735344E2,2.6343954E2,5.7978382E1,5.543042E2,1.1653365E4,8.407655E3,2.5194884E2,4.0127695E2,1.2804565E3],"categories":[],"categories_nodes":[],"categories_segments":[],"categories_sizes":[],"default_left":[0,0,0,0,0,0,0,0,0,0,0,0,0,0,0,0,0,0,0,0,0,0,0,0,0,0,0,0,0,0,0,0,0,0,0,0,0,0,0,0,0,0,0,0,0,0,0,0,0,0,0,0,0,0,0,0,0,0,0,0,0],"id":14,"left_children":[1,3,5,7,9,11,13,15,17,19,21,23,25,27,29,31,33,35,37,39,41,43,45,47,49,51,53,55,57,59,-1,-1,-1,-1,-1,-1,-1,-1,-1,-1,-1,-1,-1,-1,-1,-1,-1,-1,-1,-1,-1,-1,-1,-1,-1,-1,-1,-1,-1,-1,-1],"loss_changes":[6.7411463E11,1.795423E11,1.1670474E11,3.3668628E10,3.18353E10,4.017691E10,8.9719144E10,3.3615708E9,1.0738162E10,4.596362E9,5.884125E9,6.379389E9,5.5700357E9,2.042568E11,6.677727E10,9.819259E8,8.515871E8,6.1277594E9,2.9840994E10,1.2685804E9,1.9257364E9,6.72385E8,9.243566E8,1.2111749E9,6.96959E8,7.542866E8,1.8224087E9,4.8027734E10,6.104056E9,3.0243258E10,0E0,0E0,0E0,0E0,0E0,0E0,0E0,0E0,0E0,0E0,0E0,0E0,0E0,0E0,0E0,0E0,0E0,0E0,0E0,0E0,0E0,0E0,0E0,0E0,0E0,0E0,0E0,0E0,0E0,0E0,0E0],"parents":[2147483647,0,0,1,1,2,2,3,3,4,4,5,5,6,6,7,7,8,8,9,9,10,10,11,11,12,12,13,13,14,14,15,15,16,16,17,17,18,18,19,19,20,20,21,21,22,22,23,23,24,24,25,25,26,26,27,27,28,28,29,29],"right_children":[2,4,6,8,10,12,14,16,18,20,22,24,26,28,30,32,34,36,38,40,42,44,46,48,50,52,54,56,58,60,-1,-1,-1,-1,-1,-1,-1,-1,-1,-1,-1,-1,-1,-1,-1,-1,-1,-1,-1,-1,-1,-1,-1,-1,-1,-1,-1,-1,-1,-1,-1],"split_conditions":[6.919E3,2.95E3,1.6E4,1.34E3,4E3,1.0285E4,1E1,8.8E2,1.55E4,3.55E3,5.25E3,8.3E3,1.32E4,9E0,6E5,6.8E2,1.45E3,2.1E3,1E1,2.34E3,1.83E2,4.8E3,6.1E3,1.87E3,9E3,1.2E4,6E0,1.9E2,4.7E2,1.48E2,1.8705006E4,-5.8852905E1,-4.646378E1,-3.9546047E1,-3.058573E1,-2.2867764E1,-8.1565895E0,1.4113997E4,-1.285134E3,-9.454336E0,6.4016147E0,1.7493603E1,4.1264175E1,3.4909985E1,4.662085E1,6.0956665E1,7.8895706E1,-1.562976E1,1.0327421E2,1.3332549E2,1.5486575E2,1.8745674E2,2.1735344E2,2.6343954E2,5.7978382E1,5.543042E2,1.1653365E4,8.407655E3,2.5194884E2,4.0127695E2,1.2804565E3],"split_indices":[7,7,7,6,6,7,0,6,6,7,7,6,6,0,6,7,7,6,0,6,3,7,7,6,6,6,4,3,1,3,0,0,0,0,0,0,0,0,0,0,0,0,0,0,0,0,0,0,0,0,0,0,0,0,0,0,0,0,0,0,0],"split_type":[0,0,0,0,0,0,0,0,0,0,0,0,0,0,0,0,0,0,0,0,0,0,0,0,0,0,0,0,0,0,0,0,0,0,0,0,0,0,0,0,0,0,0,0,0,0,0,0,0,0,0,0,0,0,0,0,0,0,0,0,0],"sum_hessian":[3.193372E6,2.994074E6,1.99298E5,2.083716E6,9.10358E5,1.86025E5,1.3273E4,9.16511E5,1.167205E6,5.87619E5,3.22739E5,1.2455E5,6.1475E4,2.12E2,1.3061E4,4.4249E5,4.74021E5,1.167201E6,4E0,3.21831E5,2.65788E5,2.00518E5,1.22221E5,6.007E4,6.448E4,3.6217E4,2.5258E4,1.65E2,4.7E1,1.306E4,1E0,7.7594E4,3.64896E5,3.13747E5,1.60274E5,6.84113E5,4.83088E5,1E0,3E0,6.2656E4,2.59175E5,2.25643E5,4.0145E4,1.15049E5,8.5469E4,7.6016E4,4.6205E4,8.69E2,5.9201E4,2.3999E4,4.0481E4,2.2659E4,1.3558E4,2.4818E4,4.4E2,1.62E2,3E0,4.6E1,1E0,1.2657E4,4.03E2],"tree_param":{"num_deleted":"0","num_feature":"13","num_nodes":"61","size_leaf_vector":"1"}},{"base_weights":[1.686128E-1,-1.03137314E2,1.6588464E3,-2.2754204E2,3.0349167E2,1.4682263E3,4.283638E3,-3.387325E2,-8.029809E1,1.9388927E2,5.384508E2,1.2064392E3,2.118565E3,3.3732633E4,3.93067E3,-4.0671304E2,-2.5667245E2,-1.1973063E2,-1.6056976E0,1.02888695E2,2.7661432E2,4.4771854E2,6.8627704E2,1.0014778E3,1.4035282E3,1.8789973E3,2.355518E3,9.102354E3,7.863895E4,3.902611E3,1.7769756E4,-4.7588085E1,-3.7440804E1,-2.8830328E1,-2.1797117E1,-1.5570993E1,-8.158801E0,-9.8134977E-1,6.4391014E1,1.0071105E1,2.0686372E2,2.4654318E1,3.538256E1,3.3361706E1,4.8283928E1,6.810991E1,5.3176733E2,8.3554924E1,1.0976028E2,1.3398373E2,1.6227376E2,1.9312465E2,1.3726472E2,2.3861214E2,8.583754E1,4.8511172E2,1.0779363E4,8.542253E3,-3.5679376E2,3.619589E2,1.3738208E3],"categories":[],"categories_nodes":[],"categories_segments":[],"categories_sizes":[],"default_left":[0,0,0,0,0,0,0,0,0,0,0,0,0,0,0,0,0,0,0,0,0,0,0,0,0,0,0,0,0,0,0,0,0,0,0,0,0,0,0,0,0,0,0,0,0,0,0,0,0,0,0,0,0,0,0,0,0,0,0,0,0],"id":15,"left_children":[1,3,5,7,9,11,13,15,17,19,21,23,25,27,29,31,33,35,37,39,41,43,45,47,49,51,53,55,57,59,-1,-1,-1,-1,-1,-1,-1,-1,-1,-1,-1,-1,-1,-1,-1,-1,-1,-1,-1,-1,-1,-1,-1,-1,-1,-1,-1,-1,-1,-1,-1],"loss_changes":[5.4718864E11,1.5207062E11,9.3671555E10,3.768696E10,1.8135724E10,2.97153E10,1.3162886E11,7.3161605E9,3.0732047E9,3.6151788E9,3.0043177E9,5.0261524E9,2.8393964E9,1.651925E11,6.0384264E10,1.6025846E9,7.273595E8,9.054239E8,1.7516763E9,9.7870694E8,5.83979E8,5.5612416E8,2.03955E9,9.7224704E8,8.836219E8,6.5653146E8,1.1517297E9,4.0593957E10,2.986056E10,3.481882E10,0E0,0E0,0E0,0E0,0E0,0E0,0E0,0E0,0E0,0E0,0E0,0E0,0E0,0E0,0E0,0E0,0E0,0E0,0E0,0E0,0E0,0E0,0E0,0E0,0E0,0E0,0E0,0E0,0E0,0E0,0E0],"parents":[2147483647,0,0,1,1,2,2,3,3,4,4,5,5,6,6,7,7,8,8,9,9,10,10,11,11,12,12,13,13,14,14,15,15,16,16,17,17,18,18,19,19,20,20,21,21,22,22,23,23,24,24,25,25,26,26,27,27,28,28,29,29],"right_children":[2,4,6,8,10,12,14,16,18,20,22,24,26,28,30,32,34,36,38,40,42,44,46,48,50,52,54,56,58,60,-1,-1,-1,-1,-1,-1,-1,-1,-1,-1,-1,-1,-1,-1,-1,-1,-1,-1,-1,-1,-1,-1,-1,-1,-1,-1,-1,-1,-1,-1,-1],"split_conditions":[6.4E3,2.9E3,1.55E4,2.025E3,4.85E3,1.12E4,1E1,1.17E3,2.72E3,3.9E3,6E3,8.7E3,1.32E4,4E0,6E5,9.25E2,1.74E3,2.17E3,2E2,3.9E3,4.105E3,4.02E3,1.36E4,7.43E3,9.9E3,6E0,6E0,1.42E2,6E0,1.48E2,1.7769756E4,-4.7588085E1,-3.7440804E1,-2.8830328E1,-2.1797117E1,-1.5570993E1,-8.158801E0,-9.8134977E-1,6.4391014E1,1.0071105E1,2.0686372E2,2.4654318E1,3.538256E1,3.3361706E1,4.8283928E1,6.810991E1,5.3176733E2,8.3554924E1,1.0976028E2,1.3398373E2,1.6227376E2,1.9312465E2,1.3726472E2,2.3861214E2,8.583754E1,4.8511172E2,1.0779363E4,8.542253E3,-3.5679376E2,3.619589E2,1.3738208E3],"split_indices":[6,6,6,7,7,7,0,6,7,7,7,6,6,0,6,7,7,6,3,6,6,6,7,7,6,4,4,3,8,3,0,0,0,0,0,0,0,0,0,0,0,0,0,0,0,0,0,0,0,0,0,0,0,0,0,0,0,0,0,0,0],"split_type":[0,0,0,0,0,0,0,0,0,0,0,0,0,0,0,0,0,0,0,0,0,0,0,0,0,0,0,0,0,0,0,0,0,0,0,0,0,0,0,0,0,0,0,0,0,0,0,0,0,0,0,0,0,0,0,0,0,0,0,0,0],"sum_hessian":[3.193372E6,3.006144E6,1.87228E5,2.301898E6,7.04246E5,1.74553E5,1.2675E4,1.311514E6,9.90384E5,4.80232E5,2.24014E5,1.24457E5,5.0096E4,1.49E2,1.2526E4,7.1729E5,5.94224E5,6.59773E5,3.30611E5,2.28679E5,2.51553E5,1.38816E5,8.5198E4,6.1013E4,6.3444E4,2.4915E4,2.5181E4,9.7E1,5.2E1,1.2525E4,1E0,2.28353E5,4.88937E5,3.26977E5,2.67247E5,3.39513E5,3.2026E5,3.26461E5,4.15E3,2.28427E5,2.52E2,1.81046E5,7.0507E4,3.2674E4,1.06142E5,8.5104E4,9.4E1,2.2384E4,3.8629E4,4.9166E4,1.4278E4,2.2582E4,2.333E3,2.4676E4,5.05E2,9.4E1,3E0,4.8E1,4E0,1.2176E4,3.49E2],"tree_param":{"num_deleted":"0","num_feature":"13","num_nodes":"61","size_leaf_vector":"1"}},{"base_weights":[1.6459872E-1,-9.278931E1,1.4959315E3,-2.0520103E2,2.729707E2,1.3252418E3,3.8420388E3,-3.0485938E2,-7.2940056E1,1.7254918E2,4.7981717E2,1.0907313E3,1.9052899E3,2.8951223E4,3.5429802E3,-3.6726617E2,-2.3233778E2,-1.1088189E2,-8.0026045E0,9.126196E1,2.4767358E2,4.7884946E2,3.765621E4,9.163141E2,1.2662823E3,1.7759741E3,2.295104E3,8.3070625E3,6.7300766E4,3.5163008E3,1.6881268E4,-4.303517E1,-3.3603287E1,-2.608457E1,-1.9617395E1,-1.4171481E1,-7.8374643E0,-1.4015915E0,5.247287E1,4.4336805E0,1.3349975E1,1.8980331E1,2.8362951E1,4.000619E1,6.2038296E1,1.2981184E4,-6.7372797E2,7.816291E1,1.0216241E2,-4.008478E1,1.2793091E2,1.8068309E2,1.12227005E2,2.3383084E2,9.199015E1,4.3711124E2,9.970911E3,7.3251094E3,-3.2825034E2,2.4049966E2,5.6825806E2],"categories":[],"categories_nodes":[],"categories_segments":[],"categories_sizes":[],"default_left":[0,0,0,0,0,0,0,0,0,0,0,0,0,0,0,0,0,0,0,0,0,0,0,0,0,0,0,0,0,0,0,0,0,0,0,0,0,0,0,0,0,0,0,0,0,0,0,0,0,0,0,0,0,0,0,0,0,0,0,0,0],"id":16,"left_children":[1,3,5,7,9,11,13,15,17,19,21,23,25,27,29,31,33,35,37,39,41,43,45,47,49,51,53,55,57,59,-1,-1,-1,-1,-1,-1,-1,-1,-1,-1,-1,-1,-1,-1,-1,-1,-1,-1,-1,-1,-1,-1,-1,-1,-1,-1,-1,-1,-1,-1,-1],"loss_changes":[4.4399837E11,1.2361585E11,7.481616E10,3.031262E10,1.4681371E10,2.3689822E10,9.504547E10,5.9356283E9,2.434833E9,2.9055355E9,8.292487E9,3.796484E9,2.5235292E9,1.1740336E11,5.46245E10,1.3888061E9,6.253281E8,6.2518784E8,1.1675406E9,4.5294182E8,5.1446886E8,2.5755402E9,2.5421238E10,8.816927E8,1.3428818E9,7.575388E8,7.397663E8,3.4820047E10,2.208011E10,3.0131732E10,0E0,0E0,0E0,0E0,0E0,0E0,0E0,0E0,0E0,0E0,0E0,0E0,0E0,0E0,0E0,0E0,0E0,0E0,0E0,0E0,0E0,0E0,0E0,0E0,0E0,0E0,0E0,0E0,0E0,0E0,0E0],"parents":[2147483647,0,0,1,1,2,2,3,3,4,4,5,5,6,6,7,7,8,8,9,9,10,10,11,11,12,12,13,13,14,14,15,15,16,16,17,17,18,18,19,19,20,20,21,21,22,22,23,23,24,24,25,25,26,26,27,27,28,28,29,29],"right_children":[2,4,6,8,10,12,14,16,18,20,22,24,26,28,30,32,34,36,38,40,42,44,46,48,50,52,54,56,58,60,-1,-1,-1,-1,-1,-1,-1,-1,-1,-1,-1,-1,-1,-1,-1,-1,-1,-1,-1,-1,-1,-1,-1,-1,-1,-1,-1,-1,-1,-1,-1],"split_conditions":[7.025E3,2.9E3,1.55E4,2.025E3,4.25E3,1.04E4,1E1,1.15E3,2.68E3,3.9E3,1.55E4,9.04E3,1.46E4,4E0,6E5,6.5E2,1.74E3,2.15E3,2E2,3.2E3,1.4E1,5.15E3,1E1,2.3E1,2.5E3,6E0,6E0,1.42E2,6E0,1.28E2,1.6881268E4,-4.303517E1,-3.3603287E1,-2.608457E1,-1.9617395E1,-1.4171481E1,-7.8374643E0,-1.4015915E0,5.247287E1,4.4336805E0,1.3349975E1,1.8980331E1,2.8362951E1,4.000619E1,6.2038296E1,1.2981184E4,-6.7372797E2,7.816291E1,1.0216241E2,-4.008478E1,1.2793091E2,1.8068309E2,1.12227005E2,2.3383084E2,9.199015E1,4.3711124E2,9.970911E3,7.3251094E3,-3.2825034E2,2.4049966E2,5.6825806E2],"split_indices":[7,6,6,7,6,6,0,6,7,7,6,7,7,0,6,6,7,6,3,6,0,6,0,0,6,4,4,3,8,3,0,0,0,0,0,0,0,0,0,0,0,0,0,0,0,0,0,0,0,0,0,0,0,0,0,0,0,0,0,0,0],"split_type":[0,0,0,0,0,0,0,0,0,0,0,0,0,0,0,0,0,0,0,0,0,0,0,0,0,0,0,0,0,0,0,0,0,0,0,0,0,0,0,0,0,0,0,0,0,0,0,0,0,0,0,0,0,0,0,0,0,0,0,0,0],"sum_hessian":[3.193372E6,3.006533E6,1.86839E5,2.299738E6,7.06795E5,1.74169E5,1.267E4,1.311514E6,9.88224E5,4.75801E5,2.30994E5,1.24028E5,5.0141E4,1.48E2,1.2522E4,7.04913E5,6.06601E5,6.23767E5,3.64457E5,2.28528E5,2.47273E5,2.30989E5,5E0,6.2218E4,6.181E4,3.7655E4,1.2486E4,9.7E1,5.1E1,1.2521E4,1E0,2.33425E5,4.71488E5,3.39202E5,2.67399E5,3.20126E5,3.03641E5,3.6039E5,4.067E3,1.08258E5,1.2027E5,9.4762E4,1.52511E5,1.48389E5,8.26E4,1E0,4E0,2.7305E4,3.4913E4,4.79E2,6.1331E4,3.5956E4,1.699E3,1.2105E4,3.81E2,9.4E1,3E0,4.7E1,4E0,8.277E3,4.244E3],"tree_param":{"num_deleted":"0","num_feature":"13","num_nodes":"61","size_leaf_vector":"1"}},{"base_weights":[1.6328494E-1,-8.057212E1,1.3976255E3,-1.8464389E2,2.5234169E2,1.2315825E3,3.4132134E3,-2.8030603E2,-7.197615E1,1.7387238E2,4.8836584E2,1.01930835E3,1.7030541E3,1.0936632E4,2.9182637E3,-3.5169824E2,-2.3228215E2,-1.0486332E2,1.7203821E1,1.7347433E2,3.5941832E4,4.277194E2,6.1341956E2,8.920472E2,1.1703854E3,1.5141482E3,1.8994473E3,5.6522207E4,7.962326E3,2.8927458E3,1.6037203E4,-4.619085E0,-3.590124E1,-2.850247E1,-2.0067015E1,-1.4171495E1,-7.26924E0,-2.155699E-1,2.0575226E1,1.0560087E1,2.713535E1,1.2332124E4,-6.1982983E2,1.5156128E1,4.4307934E1,5.5378307E1,6.5562126E1,7.525991E1,9.78923E1,1.0908138E2,1.2813298E2,-4.0859427E2,1.5171645E2,1.9423894E2,5.7579784E1,-2.20903E2,6.0318013E3,1.341893E3,5.555117E2,2.0149722E2,5.826219E2],"categories":[],"categories_nodes":[],"categories_segments":[],"categories_sizes":[],"default_left":[0,0,0,0,0,0,0,0,0,0,0,0,0,0,0,0,0,0,0,0,0,0,0,0,0,0,0,0,0,0,0,0,0,0,0,0,0,0,0,0,0,0,0,0,0,0,0,0,0,0,0,0,0,0,0,0,0,0,0,0,0],"id":17,"left_children":[1,3,5,7,9,11,13,15,17,19,21,23,25,27,29,31,33,35,37,39,41,43,45,47,49,51,53,55,57,59,-1,-1,-1,-1,-1,-1,-1,-1,-1,-1,-1,-1,-1,-1,-1,-1,-1,-1,-1,-1,-1,-1,-1,-1,-1,-1,-1,-1,-1,-1,-1],"loss_changes":[3.6029134E11,1.0459775E11,5.836764E10,2.478914E10,1.3316096E10,1.612546E10,4.9396646E10,4.2645176E9,3.0974582E9,7.6761364E9,1.3602857E9,2.1353021E9,1.8530796E9,1.10594425E11,4.9582973E10,1.1177492E9,1.2398019E9,9.147351E8,1.03862304E9,3.5846943E9,2.285746E10,5.1238707E8,1.4708326E8,7.2997274E8,4.470702E8,4.3699405E8,1.3927711E9,1.1279843E10,1.0039542E10,3.2058958E10,0E0,0E0,0E0,0E0,0E0,0E0,0E0,0E0,0E0,0E0,0E0,0E0,0E0,0E0,0E0,0E0,0E0,0E0,0E0,0E0,0E0,0E0,0E0,0E0,0E0,0E0,0E0,0E0,0E0,0E0,0E0],"parents":[2147483647,0,0,1,1,2,2,3,3,4,4,5,5,6,6,7,7,8,8,9,9,10,10,11,11,12,12,13,13,14,14,15,15,16,16,17,17,18,18,19,19,20,20,21,21,22,22,23,23,24,24,25,25,26,26,27,27,28,28,29,29],"right_children":[2,4,6,8,10,12,14,16,18,20,22,24,26,28,30,32,34,36,38,40,42,44,46,48,50,52,54,56,58,60,-1,-1,-1,-1,-1,-1,-1,-1,-1,-1,-1,-1,-1,-1,-1,-1,-1,-1,-1,-1,-1,-1,-1,-1,-1,-1,-1,-1,-1,-1,-1],"split_conditions":[7.43E3,2.9E3,1.6E4,1.65E3,5.025E3,1.12E4,2E0,9.4E2,2.75E3,1.55E4,5.8E3,9E3,1.36E4,1E1,6E5,6E0,1.45E3,2.05E3,4E3,3.8E3,1E1,1E0,6.1E3,2.3E1,9.98E3,4E2,6E0,4E0,1.35E2,6E0,1.6037203E4,-4.619085E0,-3.590124E1,-2.850247E1,-2.0067015E1,-1.4171495E1,-7.26924E0,-2.155699E-1,2.0575226E1,1.0560087E1,2.713535E1,1.2332124E4,-6.1982983E2,1.5156128E1,4.4307934E1,5.5378307E1,6.5562126E1,7.525991E1,9.78923E1,1.0908138E2,1.2813298E2,-4.0859427E2,1.5171645E2,1.9423894E2,5.7579784E1,-2.20903E2,6.0318013E3,1.341893E3,5.555117E2,2.0149722E2,5.826219E2],"split_indices":[7,6,7,6,7,7,4,6,7,6,6,6,7,0,6,4,7,6,7,6,0,4,6,0,7,6,4,0,3,4,0,0,0,0,0,0,0,0,0,0,0,0,0,0,0,0,0,0,0,0,0,0,0,0,0,0,0,0,0,0,0],"split_type":[0,0,0,0,0,0,0,0,0,0,0,0,0,0,0,0,0,0,0,0,0,0,0,0,0,0,0,0,0,0,0,0,0,0,0,0,0,0,0,0,0,0,0,0,0,0,0,0,0,0,0,0,0,0,0,0,0,0,0,0,0],"sum_hessian":[3.193372E6,3.018959E6,1.74413E5,2.299969E6,7.1899E5,1.6114E5,1.3273E4,1.243855E6,1.056114E6,5.39596E5,1.79394E5,1.11115E5,5.0025E4,8.18E2,1.2455E4,5.00221E5,7.43634E5,7.71577E5,2.84537E5,5.39591E5,5E0,1.2081E5,5.8584E4,6.0315E4,5.08E4,2.5503E4,2.4522E4,4.9E1,7.69E2,1.2454E4,1E0,1.1696E4,4.88525E5,2.78675E5,4.64959E5,3.59625E5,4.11952E5,2.58043E5,2.6494E4,3.18637E5,2.20954E5,1E0,4E0,6.366E3,1.14444E5,2.4283E4,3.4301E4,2.3156E4,3.7159E4,2.9589E4,2.1211E4,1.3E1,2.549E4,2.3751E4,7.71E2,3E0,4.6E1,2.34E2,5.35E2,9.587E3,2.867E3],"tree_param":{"num_deleted":"0","num_feature":"13","num_nodes":"61","size_leaf_vector":"1"}},{"base_weights":[1.5847202E-1,-8.332479E1,1.0961714E3,-1.9552916E2,1.3318822E2,9.200578E2,2.514866E3,-2.827112E2,-1.2294809E2,2.650273E1,2.7362668E2,7.1249097E2,1.2709658E3,1.1005786E4,2.2441226E3,-3.5162866E2,-2.5708838E2,-1.7740231E2,-7.9241394E1,-1.9173064E0,1.0704877E2,2.2590982E2,4.254582E2,5.7797125E2,8.7377246E2,1.1387673E3,1.5338315E3,5.8162363E4,7.8641816E3,2.231618E3,1.5235344E4,1.0256354E1,-3.6315357E1,-2.5683212E1,-4.1079538E2,-1.926995E1,-1.4119773E1,-8.137408E0,6.64E1,-3.2852604E0,2.6001987E0,1.5581815E2,1.0392895E1,1.8935675E1,2.9037022E1,3.7740032E1,6.819925E1,4.373126E2,5.7537178E1,8.184194E1,9.283622E1,1.03748184E2,1.23202995E2,1.5826366E2,4.4178627E1,4.2285093E3,8.727409E3,1.4394127E3,5.344367E2,2.2167126E2,9.179397E3],"categories":[],"categories_nodes":[],"categories_segments":[],"categories_sizes":[],"default_left":[0,0,0,0,0,0,0,0,0,0,0,0,0,0,0,0,0,0,0,0,0,0,0,0,0,0,0,0,0,0,0,0,0,0,0,0,0,0,0,0,0,0,0,0,0,0,0,0,0,0,0,0,0,0,0,0,0,0,0,0,0],"id":18,"left_children":[1,3,5,7,9,11,13,15,17,19,21,23,25,27,29,31,33,35,37,39,41,43,45,47,49,51,53,55,57,59,-1,-1,-1,-1,-1,-1,-1,-1,-1,-1,-1,-1,-1,-1,-1,-1,-1,-1,-1,-1,-1,-1,-1,-1,-1,-1,-1,-1,-1,-1,-1],"loss_changes":[2.921897E11,7.208797E10,5.6469897E10,1.2367438E10,1.5175655E10,1.4644036E10,5.7352585E10,1.5678751E9,2.5383916E9,1.3176415E9,3.167869E9,2.7404698E9,2.5950945E9,1.137642E11,4.5064364E10,1.2597146E9,6.376325E8,2.6297958E8,9.379039E8,3.6748698E8,6.7950976E8,7.838802E8,1.2888084E9,6.770811E8,1.728471E8,4.6843904E8,1.3318881E9,1.8495898E10,1.1835949E10,3.2086049E10,0E0,0E0,0E0,0E0,0E0,0E0,0E0,0E0,0E0,0E0,0E0,0E0,0E0,0E0,0E0,0E0,0E0,0E0,0E0,0E0,0E0,0E0,0E0,0E0,0E0,0E0,0E0,0E0,0E0,0E0,0E0],"parents":[2147483647,0,0,1,1,2,2,3,3,4,4,5,5,6,6,7,7,8,8,9,9,10,10,11,11,12,12,13,13,14,14,15,15,16,16,17,17,18,18,19,19,20,20,21,21,22,22,23,23,24,24,25,25,26,26,27,27,28,28,29,29],"right_children":[2,4,6,8,10,12,14,16,18,20,22,24,26,28,30,32,34,36,38,40,42,44,46,48,50,52,54,56,58,60,-1,-1,-1,-1,-1,-1,-1,-1,-1,-1,-1,-1,-1,-1,-1,-1,-1,-1,-1,-1,-1,-1,-1,-1,-1,-1,-1,-1,-1,-1,-1],"split_conditions":[5.8E3,2.4E3,1.4225E4,1.3E3,4E3,9.6E3,2E0,9.6E2,2.025E3,3.1E3,5.25E3,7.925E3,1.26E4,1E1,6E5,6E0,1.46E4,1.925E3,2E2,2.9E3,3.05E3,4.2E3,2.3E1,3.5E2,8.7E3,9.9E3,6E0,7E0,1.35E2,1.93E2,1.5235344E4,1.0256354E1,-3.6315357E1,-2.5683212E1,-4.1079538E2,-1.926995E1,-1.4119773E1,-8.137408E0,6.64E1,-3.2852604E0,2.6001987E0,1.5581815E2,1.0392895E1,1.8935675E1,2.9037022E1,3.7740032E1,6.819925E1,4.373126E2,5.7537178E1,8.184194E1,9.283622E1,1.03748184E2,1.23202995E2,1.5826366E2,4.4178627E1,4.2285093E3,8.727409E3,1.4394127E3,5.344367E2,2.2167126E2,9.179397E3],"split_indices":[6,6,6,6,7,7,4,7,7,6,7,7,7,0,6,4,7,7,3,7,7,6,0,7,6,6,4,10,3,3,0,0,0,0,0,0,0,0,0,0,0,0,0,0,0,0,0,0,0,0,0,0,0,0,0,0,0,0,0,0,0],"split_type":[0,0,0,0,0,0,0,0,0,0,0,0,0,0,0,0,0,0,0,0,0,0,0,0,0,0,0,0,0,0,0,0,0,0,0,0,0,0,0,0,0,0,0,0,0,0,0,0,0,0,0,0,0,0,0,0,0,0,0,0,0],"sum_hessian":[3.193372E6,2.96735E6,2.26022E5,1.954475E6,1.012875E6,2.01064E5,2.4958E4,8.87925E5,1.06655E6,5.75609E5,4.37266E5,1.26337E5,7.4727E4,7.7E2,2.4188E4,2.40647E5,6.47278E5,4.74886E5,5.91664E5,4.25482E5,1.50127E5,3.32707E5,1.04559E5,6.8886E4,5.7451E4,4.9725E4,2.5002E4,4.7E1,7.23E2,2.4187E4,1E0,5.955E3,2.34692E5,6.47236E5,4.2E1,3.33831E5,1.41055E5,5.89972E5,1.692E3,2.01839E5,2.23643E5,3.21E2,1.49806E5,2.12315E5,1.20392E5,8.8064E4,1.6495E4,4.6E1,6.884E4,2.8534E4,2.8917E4,2.3843E4,2.5882E4,2.3932E4,1.07E3,3.2E1,1.5E1,2E2,5.23E2,2.4184E4,3E0],"tree_param":{"num_deleted":"0","num_feature":"13","num_nodes":"61","size_leaf_vector":"1"}},{"base_weights":[1.5532036E-1,-7.484904E1,9.9241254E2,-1.7623471E2,1.1978203E2,8.7831696E2,2.8072517E3,-2.5855588E2,-1.1420393E2,4.5135033E1,2.7877948E2,6.976349E2,1.3182045E3,2.785654E3,1.4473577E4,-3.6980573E2,-2.4435411E2,-1.5324672E2,-7.205041E1,4.485361E1,3.2494395E4,2.3427736E2,3.7110156E2,5.223972E2,8.230529E2,1.1831342E3,1.5216897E3,1.5173418E4,2.5834202E3,2.8400858E1,-4.0047195E1,-2.7924337E1,-2.214791E1,-1.5433583E1,7.1527756E1,-7.6580043E0,1.4180926E1,9.327728E-1,1.3646141E1,1.1279148E4,-6.1233215E2,1.6774214E1,2.6994871E1,3.3576748E1,4.242538E1,1.1310486E0,5.3814148E1,6.546903E1,8.6898735E1,-3.8138632E2,1.18526665E2,1.5568309E2,4.385361E1,5.593034E2,4.798947E3,1.9688014E2,4.9042682E2],"categories":[],"categories_nodes":[],"categories_segments":[],"categories_sizes":[],"default_left":[0,0,0,0,0,0,0,0,0,0,0,0,0,0,0,0,0,0,0,0,0,0,0,0,0,0,0,0,0,0,0,0,0,0,0,0,0,0,0,0,0,0,0,0,0,0,0,0,0,0,0,0,0,0,0,0,0],"id":19,"left_children":[1,3,5,7,9,11,13,15,17,19,21,23,25,27,-1,29,31,33,35,37,39,41,43,45,47,49,51,53,55,-1,-1,-1,-1,-1,-1,-1,-1,-1,-1,-1,-1,-1,-1,-1,-1,-1,-1,-1,-1,-1,-1,-1,-1,-1,-1,-1,-1],"loss_changes":[2.3766244E11,5.858576E10,4.6467514E10,9.968198E9,1.2068848E10,1.6781165E10,4.0285716E10,1.3252444E9,1.83215E9,6.317779E9,1.3346857E9,3.2891044E9,1.6878633E9,3.3212703E10,0E0,1.9040635E9,5.936333E8,5.467996E8,5.1855616E8,2.2520248E9,1.9296E10,5.2023808E8,1.983058E8,5.0242048E8,6.740828E8,3.9829504E8,9.327452E8,6.669674E10,1.8621039E10,0E0,0E0,0E0,0E0,0E0,0E0,0E0,0E0,0E0,0E0,0E0,0E0,0E0,0E0,0E0,0E0,0E0,0E0,0E0,0E0,0E0,0E0,0E0,0E0,0E0,0E0,0E0,0E0],"parents":[2147483647,0,0,1,1,2,2,3,3,4,4,5,5,6,6,7,7,8,8,9,9,10,10,11,11,12,12,13,13,15,15,16,16,17,17,18,18,19,19,20,20,21,21,22,22,23,23,24,24,25,25,26,26,27,27,28,28],"right_children":[2,4,6,8,10,12,14,16,18,20,22,24,26,28,-1,30,32,34,36,38,40,42,44,46,48,50,52,54,56,-1,-1,-1,-1,-1,-1,-1,-1,-1,-1,-1,-1,-1,-1,-1,-1,-1,-1,-1,-1,-1,-1,-1,-1,-1,-1,-1,-1],"split_conditions":[6.45E3,2.4E3,1.6E4,1.55E3,4.25E3,1.0285E4,6E5,5E2,1.9E3,1.55E4,4.8E3,7.925E3,1.36E4,1E1,1.4473577E4,6E0,1.1E3,2E2,4E3,3.3E3,1E1,1.4E1,5.4E3,1E0,2.3E1,4E2,6E0,9E0,6E0,2.8400858E1,-4.0047195E1,-2.7924337E1,-2.214791E1,-1.5433583E1,7.1527756E1,-7.6580043E0,1.4180926E1,9.327728E-1,1.3646141E1,1.1279148E4,-6.1233215E2,1.6774214E1,2.6994871E1,3.3576748E1,4.242538E1,1.1310486E0,5.3814148E1,6.546903E1,8.6898735E1,-3.8138632E2,1.18526665E2,1.5568309E2,4.385361E1,5.593034E2,4.798947E3,1.9688014E2,4.9042682E2],"split_indices":[7,6,7,7,7,7,6,6,6,6,6,7,7,0,0,4,7,3,7,6,0,0,6,4,0,6,4,0,4,0,0,0,0,0,0,0,0,0,0,0,0,0,0,0,0,0,0,0,0,0,0,0,0,0,0,0,0],"split_type":[0,0,0,0,0,0,0,0,0,0,0,0,0,0,0,0,0,0,0,0,0,0,0,0,0,0,0,0,0,0,0,0,0,0,0,0,0,0,0,0,0,0,0,0,0,0,0,0,0,0,0,0,0,0,0,0,0],"sum_hessian":[3.193372E6,2.968951E6,2.24421E5,1.952086E6,1.016865E6,2.11148E5,1.3273E4,8.38847E5,1.113239E6,6.91988E5,3.24877E5,1.49673E5,6.1475E4,1.3272E4,1E0,9.4959E4,7.43888E5,5.77943E5,5.35296E5,6.91983E5,5E0,2.19213E5,1.05664E5,6.2438E4,8.7235E4,3.6953E4,2.4522E4,2.12E2,1.306E4,4.254E3,9.0705E4,2.9458E5,4.49308E5,5.7722E5,7.23E2,5.24194E5,1.1102E4,4.98618E5,1.93365E5,1E0,4E0,7.651E4,1.42703E5,6.3475E4,4.2189E4,1.866E3,6.0572E4,1.8702E4,6.8533E4,1.5E1,3.6938E4,2.3751E4,7.71E2,1.65E2,4.7E1,1.0327E4,2.733E3],"tree_param":{"num_deleted":"0","num_feature":"13","num_nodes":"57","size_leaf_vector":"1"}},{"base_weights":[1.4964087E-1,-6.943962E1,8.6697205E2,-1.5170163E2,1.1954377E2,7.705528E2,2.576327E3,-2.3108261E2,-9.38522E1,5.47487E1,2.4380206E2,6.084799E2,1.1912823E3,2.003836E4,2.3683562E3,-3.033277E2,-2.131295E2,-9.399582E1,3.4144125E4,2.2749264E1,1.2166088E2,1.8679465E2,3.0323395E2,4.5974783E2,7.374892E2,9.970235E2,1.3286682E3,6.0364434E3,4.6041234E4,2.346584E3,1.3749898E4,1.8241674E1,-3.1796915E1,-2.2886667E1,-1.629592E1,-1.393796E1,-5.9886446E0,1.071519E4,-1.0895797E3,-2.0782673E1,2.8876188E0,8.791825E0,3.0372778E1,1.8669756E1,7.7079553E2,4.1761852E1,2.892385E1,-5.1038394E0,4.762969E1,7.401077E1,-4.0129437E2,9.506524E1,1.17406395E2,1.3640764E2,2.5749466E1,2.6695966E2,8.448995E3,1.6773086E4,4.036632E3,2.1113951E2,1.0519757E3],"categories":[],"categories_nodes":[],"categories_segments":[],"categories_sizes":[],"default_left":[0,0,0,0,0,0,0,0,0,0,0,0,0,0,0,0,0,0,0,0,0,0,0,0,0,0,0,0,0,0,0,0,0,0,0,0,0,0,0,0,0,0,0,0,0,0,0,0,0,0,0,0,0,0,0,0,0,0,0,0,0],"id":20,"left_children":[1,3,5,7,9,11,13,15,17,19,21,23,25,27,29,31,33,35,37,39,41,43,45,47,49,51,53,55,57,59,-1,-1,-1,-1,-1,-1,-1,-1,-1,-1,-1,-1,-1,-1,-1,-1,-1,-1,-1,-1,-1,-1,-1,-1,-1,-1,-1,-1,-1,-1,-1],"loss_changes":[1.9262921E11,4.5955367E10,3.9111E10,9.45777E9,7.217997E9,1.5317549E10,4.5968474E10,1.1260191E9,5.861211E9,1.2616497E9,1.04096154E9,3.1114445E9,1.6659251E9,5.3971497E10,3.6520903E10,1.229055E9,5.4900736E8,1.8442179E9,1.760883E10,5.631352E8,1.1710804E9,1.1310234E8,2.4069632E8,6.368072E8,1.0832445E9,2.1137203E8,1.3874135E9,2.5660258E10,2.9139378E10,2.40481E10,0E0,0E0,0E0,0E0,0E0,0E0,0E0,0E0,0E0,0E0,0E0,0E0,0E0,0E0,0E0,0E0,0E0,0E0,0E0,0E0,0E0,0E0,0E0,0E0,0E0,0E0,0E0,0E0,0E0,0E0,0E0],"parents":[2147483647,0,0,1,1,2,2,3,3,4,4,5,5,6,6,7,7,8,8,9,9,10,10,11,11,12,12,13,13,14,14,15,15,16,16,17,17,18,18,19,19,20,20,21,21,22,22,23,23,24,24,25,25,26,26,27,27,28,28,29,29],"right_children":[2,4,6,8,10,12,14,16,18,20,22,24,26,28,30,32,34,36,38,40,42,44,46,48,50,52,54,56,58,60,-1,-1,-1,-1,-1,-1,-1,-1,-1,-1,-1,-1,-1,-1,-1,-1,-1,-1,-1,-1,-1,-1,-1,-1,-1,-1,-1,-1,-1,-1,-1],"split_conditions":[6.25E3,2.9E3,1.55E4,1.3E3,3.85E3,9.9E3,1E1,5.25E2,1.55E4,3.71E3,4.96E3,7.925E3,1.26E4,4E0,6E5,6E0,1.45E3,1.9E3,1E1,1.05E3,1.83E2,6.1E3,3.2E1,1E0,1.9E1,1.1E1,6E0,1.42E2,4.4E1,1.48E2,1.3749898E4,1.8241674E1,-3.1796915E1,-2.2886667E1,-1.629592E1,-1.393796E1,-5.9886446E0,1.071519E4,-1.0895797E3,-2.0782673E1,2.8876188E0,8.791825E0,3.0372778E1,1.8669756E1,7.7079553E2,4.1761852E1,2.892385E1,-5.1038394E0,4.762969E1,7.401077E1,-4.0129437E2,9.506524E1,1.17406395E2,1.3640764E2,2.5749466E1,2.6695966E2,8.448995E3,1.6773086E4,4.036632E3,2.1113951E2,1.0519757E3],"split_indices":[7,7,6,6,6,6,0,6,6,7,7,7,7,0,6,4,7,6,0,6,3,6,3,4,8,8,4,3,3,3,0,0,0,0,0,0,0,0,0,0,0,0,0,0,0,0,0,0,0,0,0,0,0,0,0,0,0,0,0,0,0],"split_type":[0,0,0,0,0,0,0,0,0,0,0,0,0,0,0,0,0,0,0,0,0,0,0,0,0,0,0,0,0,0,0,0,0,0,0,0,0,0,0,0,0,0,0,0,0,0,0,0,0,0,0,0,0,0,0,0,0,0,0,0,0],"sum_hessian":[3.193372E6,2.956058E6,2.37314E5,2.059559E6,8.96499E5,2.24644E5,1.267E4,8.68205E5,1.191354E6,5.89239E5,3.0726E5,1.62174E5,6.247E4,1.48E2,1.2522E4,1.72805E5,6.954E5,1.19135E6,4E0,3.98612E5,1.90627E5,1.56831E5,1.50429E5,7.5331E4,8.6843E4,2.5882E4,3.6588E4,9.7E1,5.1E1,1.2521E4,1E0,5.056E3,1.67749E5,5.29352E5,1.66048E5,5.1119E5,6.8016E5,1E0,3E0,1.0317E4,3.88295E5,1.60823E5,2.9804E4,1.5683E5,1E0,1.6396E4,1.34033E5,2.364E3,7.2967E4,8.6796E4,4.7E1,2.0515E4,5.367E3,3.5417E4,1.171E3,9.4E1,3E0,1E0,5E1,1.2172E4,3.49E2],"tree_param":{"num_deleted":"0","num_feature":"13","num_nodes":"61","size_leaf_vector":"1"}},{"base_weights":[1.518982E-1,-5.5116074E1,8.875333E2,-1.3075221E2,1.3738872E2,8.8614276E2,1.3062403E4,-1.9168797E2,-6.2764427E1,6.550743E1,2.5730148E2,7.795542E2,2.2997473E3,-2.4120937E2,-1.6298843E2,-6.242459E1,-4.341365E3,2.6285076E1,1.17084015E2,2.0747713E2,3.5647842E2,6.2039044E2,1.066687E3,8.595506E3,1.9110725E3,-3.1144644E1,-2.2517832E1,-1.8677588E1,-1.4350156E1,-9.266933E0,-3.071211E0,6.924419E2,-5.173646E2,1.8440659E0,8.770472E0,1.4739934E2,1.1517296E1,1.6506252E1,2.3299728E1,3.535737E1,3.4680103E2,5.2187195E1,7.080056E1,1.6704358E3,1.06289116E2,3.9498755E3,6.511774E2,1.886248E2,7.8153203E3],"categories":[],"categories_nodes":[],"categories_segments":[],"categories_sizes":[],"default_left":[0,0,0,0,0,0,0,0,0,0,0,0,0,0,0,0,0,0,0,0,0,0,0,0,0,0,0,0,0,0,0,0,0,0,0,0,0,0,0,0,0,0,0,0,0,0,0,0,0],"id":21,"left_children":[1,3,5,7,9,11,-1,13,15,17,19,21,23,25,27,29,31,33,35,37,39,41,43,45,47,-1,-1,-1,-1,-1,-1,-1,-1,-1,-1,-1,-1,-1,-1,-1,-1,-1,-1,-1,-1,-1,-1,-1,-1],"loss_changes":[1.5661513E11,4.377044E10,3.3662697E10,8.941101E9,7.308978E9,2.8208595E10,0E0,1.6174981E9,1.482934E9,1.07248896E9,1.5703204E9,7.9559967E9,3.2105374E10,4.7011226E8,3.3397555E8,9.7830426E8,7.953043E8,1.4509234E8,5.936886E8,2.2893363E8,9.5925146E8,9.6650035E8,3.6678042E9,4.887547E10,2.3255417E10,0E0,0E0,0E0,0E0,0E0,0E0,0E0,0E0,0E0,0E0,0E0,0E0,0E0,0E0,0E0,0E0,0E0,0E0,0E0,0E0,0E0,0E0,0E0,0E0],"parents":[2147483647,0,0,1,1,2,2,3,3,4,4,5,5,7,7,8,8,9,9,10,10,11,11,12,12,13,13,14,14,15,15,16,16,17,17,18,18,19,19,20,20,21,21,22,22,23,23,24,24],"right_children":[2,4,6,8,10,12,-1,14,16,18,20,22,24,26,28,30,32,34,36,38,40,42,44,46,48,-1,-1,-1,-1,-1,-1,-1,-1,-1,-1,-1,-1,-1,-1,-1,-1,-1,-1,-1,-1,-1,-1,-1,-1],"split_conditions":[6.4E3,2.6E3,6E5,1.925E3,4.455E3,1.6E4,1.3062403E4,8.8E2,1.6E4,3.3E3,5.548E3,9.9E3,2E0,6.8E2,1.45E3,2.41E3,6E-1,3.7E3,3.05E3,1.4E1,1.36E4,8.775E3,3.05E3,1E1,1.93E2,-3.1144644E1,-2.2517832E1,-1.8677588E1,-1.4350156E1,-9.266933E0,-3.071211E0,6.924419E2,-5.173646E2,1.8440659E0,8.770472E0,1.4739934E2,1.1517296E1,1.6506252E1,2.3299728E1,3.535737E1,3.4680103E2,5.2187195E1,7.080056E1,1.6704358E3,1.06289116E2,3.9498755E3,6.511774E2,1.886248E2,7.8153203E3],"split_indices":[6,6,6,7,7,7,0,6,7,6,7,6,4,7,7,7,5,7,7,0,7,7,7,0,3,0,0,0,0,0,0,0,0,0,0,0,0,0,0,0,0,0,0,0,0,0,0,0,0],"split_type":[0,0,0,0,0,0,0,0,0,0,0,0,0,0,0,0,0,0,0,0,0,0,0,0,0,0,0,0,0,0,0,0,0,0,0,0,0,0,0,0,0,0,0,0,0,0,0,0,0],"sum_hessian":[3.193372E6,3.006144E6,1.87228E5,2.158183E6,8.47961E5,1.87227E5,1E0,1.138116E6,1.020067E6,5.3016E5,3.17801E5,1.74101E5,1.3126E4,4.17576E5,7.2054E5,1.019987E6,8E1,3.01148E5,2.29012E5,2.11534E5,1.06267E5,1.12013E5,6.2088E4,7.62E2,1.2364E4,7.7594E4,3.39982E5,3.24463E5,3.96077E5,5.22074E5,4.97913E5,5E0,7.5E1,2.67043E5,3.4105E4,3.21E2,2.28691E5,7.9467E4,1.32067E5,1.06169E5,9.8E1,5.2729E4,5.9284E4,1.4E1,6.2074E4,4.7E1,7.15E2,1.2361E4,3E0],"tree_param":{"num_deleted":"0","num_feature":"13","num_nodes":"49","size_leaf_vector":"1"}},{"base_weights":[1.4554553E-1,-4.7849514E1,8.308998E2,-1.0784417E2,1.5644266E2,8.2948157E2,1.2409283E4,-1.6462366E2,-3.7140438E1,1.1088744E2,2.9263718E2,7.3165906E2,2.0782085E3,-2.1632751E2,-1.3746042E2,-3.730376E1,2.8261186E4,-2.3604347E2,1.1647201E2,2.376783E2,3.4592953E2,6.245871E2,1.0689252E3,1.6730576E4,1.9036931E3,-2.7067331E1,-1.9878119E1,-1.6208555E1,-1.1056974E1,-6.5033755E0,-1.0229706E-1,1.0095909E4,-6.470216E2,3.60525E1,-3.3429916E1,8.180976E0,1.7003054E1,2.1718222E1,2.6974329E1,2.9853987E1,3.7279842E1,5.4621593E1,7.417877E1,1.1025698E2,-1.8156427E0,5.101567E2,3.8325046E3,1.6987773E2,9.0252277E2],"categories":[],"categories_nodes":[],"categories_segments":[],"categories_sizes":[],"default_left":[0,0,0,0,0,0,0,0,0,0,0,0,0,0,0,0,0,0,0,0,0,0,0,0,0,0,0,0,0,0,0,0,0,0,0,0,0,0,0,0,0,0,0,0,0,0,0,0,0],"id":22,"left_children":[1,3,5,7,9,11,-1,13,15,17,19,21,23,25,27,29,31,33,35,37,39,41,43,45,47,-1,-1,-1,-1,-1,-1,-1,-1,-1,-1,-1,-1,-1,-1,-1,-1,-1,-1,-1,-1,-1,-1,-1,-1],"loss_changes":[1.2732653E11,3.7001716E10,3.0386668E10,9.368441E9,4.2519603E9,2.1303648E10,0E0,1.8176901E9,4.8047974E9,9.95008E8,5.030236E8,5.8401915E9,3.2366141E10,4.2501325E8,5.618473E8,1.0456759E9,1.5802627E10,4.7702234E8,9.382666E8,5.5519744E7,1.1093094E8,1.127256E9,1.4254735E9,3.7221708E10,1.8258223E10,0E0,0E0,0E0,0E0,0E0,0E0,0E0,0E0,0E0,0E0,0E0,0E0,0E0,0E0,0E0,0E0,0E0,0E0,0E0,0E0,0E0,0E0,0E0,0E0],"parents":[2147483647,0,0,1,1,2,2,3,3,4,4,5,5,7,7,8,8,9,9,10,10,11,11,12,12,13,13,14,14,15,15,16,16,17,17,18,18,19,19,20,20,21,21,22,22,23,23,24,24],"right_children":[2,4,6,8,10,12,-1,14,16,18,20,22,24,26,28,30,32,34,36,38,40,42,44,46,48,-1,-1,-1,-1,-1,-1,-1,-1,-1,-1,-1,-1,-1,-1,-1,-1,-1,-1,-1,-1,-1,-1,-1,-1],"split_conditions":[7.43E3,3.41E3,6E5,1.8E3,4.6E3,1.55E4,1.2409283E4,8.8E2,1.55E4,1.05E3,6E3,1.2E4,1E1,5E2,1.55E3,2.34E3,1E1,6E0,4.325E3,5.4E3,1.4E1,9.6E3,6E0,4E0,1.48E2,-2.7067331E1,-1.9878119E1,-1.6208555E1,-1.1056974E1,-6.5033755E0,-1.0229706E-1,1.0095909E4,-6.470216E2,3.60525E1,-3.3429916E1,8.180976E0,1.7003054E1,2.1718222E1,2.6974329E1,2.9853987E1,3.7279842E1,5.4621593E1,7.417877E1,1.1025698E2,-1.8156427E0,5.101567E2,3.8325046E3,1.6987773E2,9.0252277E2],"split_indices":[7,7,6,6,6,6,0,6,6,6,7,6,0,6,7,6,0,4,7,7,0,7,4,0,3,0,0,0,0,0,0,0,0,0,0,0,0,0,0,0,0,0,0,0,0,0,0,0,0],"split_type":[0,0,0,0,0,0,0,0,0,0,0,0,0,0,0,0,0,0,0,0,0,0,0,0,0,0,0,0,0,0,0,0,0,0,0,0,0,0,0,0,0,0,0,0,0,0,0,0,0],"sum_hessian":[3.193372E6,3.018959E6,1.74413E5,2.333638E6,6.85321E5,1.74412E5,1E0,1.294263E6,1.039375E6,5.13548E5,1.71773E5,1.61743E5,1.2669E4,4.45765E5,8.48498E5,1.03937E6,5E0,8.135E3,5.05413E5,8.4567E4,8.7206E4,1.2277E5,3.8973E4,1.48E2,1.2521E4,1.08792E5,3.36973E5,4.42904E5,4.05594E5,5.89106E5,4.50264E5,1E0,4E0,1.15E3,6.985E3,3.06836E5,1.98577E5,5.1595E4,3.2972E4,3.1558E4,5.5648E4,7.3576E4,4.9194E4,3.7803E4,1.17E3,9.7E1,5.1E1,1.2172E4,3.49E2],"tree_param":{"num_deleted":"0","num_feature":"13","num_nodes":"49","size_leaf_vector":"1"}},{"base_weights":[1.3964218E-1,-4.3106865E1,7.476621E2,-1.1016506E2,1.0632686E2,7.4631635E2,1.1788819E4,-1.6931996E2,-6.7867004E1,4.6830605E1,2.0912216E2,6.5468304E2,1.8740043E3,-2.4321678E2,-1.5883197E2,-1.03529655E2,-4.2954544E1,-1.9665016E2,5.37168E1,1.7057954E2,3.1484836E2,5.6254675E2,9.668722E2,7.1659487E3,1.5472264E3,2.8936008E1,-2.663064E1,-1.8410683E1,-1.3896606E1,-1.0526767E1,8.597651E1,-5.9162974E0,-2.5528924E0,-1.8921156E1,-4.670157E2,2.4926863E0,1.0615111E1,1.3539156E1,2.0690603E1,9.957722E1,3.0585743E1,5.6126984E1,2.7009883E3,9.954839E1,9.304529E0,3.195606E3,5.494034E2,1.5243285E2,7.1909087E3],"categories":[],"categories_nodes":[],"categories_segments":[],"categories_sizes":[],"default_left":[0,0,0,0,0,0,0,0,0,0,0,0,0,0,0,0,0,0,0,0,0,0,0,0,0,0,0,0,0,0,0,0,0,0,0,0,0,0,0,0,0,0,0,0,0,0,0,0,0],"id":23,"left_children":[1,3,5,7,9,11,-1,13,15,17,19,21,23,25,27,29,31,33,35,37,39,41,43,45,47,-1,-1,-1,-1,-1,-1,-1,-1,-1,-1,-1,-1,-1,-1,-1,-1,-1,-1,-1,-1,-1,-1,-1,-1],"loss_changes":[1.0323455E11,3.0249976E10,2.7443569E10,5.213649E9,5.718694E9,1.8045182E10,0E0,6.732554E8,1.0794107E9,9.9302835E8,1.3968026E9,4.645372E9,2.2684123E10,1.3277962E9,3.819602E8,8.366387E8,2.020247E8,5.411923E8,8.694733E8,3.2108646E8,5.603512E8,4.1966592E9,9.200927E8,3.144847E10,1.9807248E10,0E0,0E0,0E0,0E0,0E0,0E0,0E0,0E0,0E0,0E0,0E0,0E0,0E0,0E0,0E0,0E0,0E0,0E0,0E0,0E0,0E0,0E0,0E0,0E0],"parents":[2147483647,0,0,1,1,2,2,3,3,4,4,5,5,7,7,8,8,9,9,10,10,11,11,12,12,13,13,14,14,15,15,16,16,17,17,18,18,19,19,20,20,21,21,22,22,23,23,24,24],"right_children":[2,4,6,8,10,12,-1,14,16,18,20,22,24,26,28,30,32,34,36,38,40,42,44,46,48,-1,-1,-1,-1,-1,-1,-1,-1,-1,-1,-1,-1,-1,-1,-1,-1,-1,-1,-1,-1,-1,-1,-1,-1],"split_conditions":[6.75E3,2.95E3,6E5,1.3E3,4E3,1.6E4,1.1788819E4,5E2,2.08E3,1.05E3,6E3,1.26E4,2E0,6E0,1.15E3,2.2E3,2.25E3,1.6E4,3.8E3,4.85E3,1E0,1.55E4,6E0,1E1,1.93E2,2.8936008E1,-2.663064E1,-1.8410683E1,-1.3896606E1,-1.0526767E1,8.597651E1,-5.9162974E0,-2.5528924E0,-1.8921156E1,-4.670157E2,2.4926863E0,1.0615111E1,1.3539156E1,2.0690603E1,9.957722E1,3.0585743E1,5.6126984E1,2.7009883E3,9.954839E1,9.304529E0,3.195606E3,5.494034E2,1.5243285E2,7.1909087E3],"split_indices":[6,7,6,6,6,7,0,6,7,6,7,7,4,4,7,6,6,7,7,7,3,6,4,0,3,0,0,0,0,0,0,0,0,0,0,0,0,0,0,0,0,0,0,0,0,0,0,0,0],"split_type":[0,0,0,0,0,0,0,0,0,0,0,0,0,0,0,0,0,0,0,0,0,0,0,0,0,0,0,0,0,0,0,0,0,0,0,0,0,0,0,0,0,0,0,0,0,0,0,0,0],"sum_hessian":[3.193372E6,3.01873E6,1.74642E5,2.083681E6,9.35049E5,1.74641E5,1E0,8.68733E5,1.214948E6,5.9226E5,3.42789E5,1.61518E5,1.3123E4,1.0797E5,7.60763E5,4.99665E5,7.15283E5,1.6289E4,5.75971E5,2.51212E5,9.1577E4,1.24714E5,3.6804E4,7.62E2,1.2361E4,4.486E3,1.03484E5,3.34799E5,4.25964E5,4.98766E5,8.99E2,3.70583E5,3.447E5,1.6263E4,2.6E1,3.71819E5,2.04152E5,1.27608E5,1.23604E5,1.192E3,9.0385E4,1.24709E5,5E0,3.5637E4,1.167E3,4.7E1,7.15E2,1.2358E4,3E0],"tree_param":{"num_deleted":"0","num_feature":"13","num_nodes":"49","size_leaf_vector":"1"}},{"base_weights":[1.3366123E-1,-3.8877106E1,6.7537726E2,-9.5749275E1,1.0330643E2,6.740969E2,1.1199378E4,-1.4681001E2,-5.154419E1,5.7456852E1,2.1021835E2,5.946824E2,1.6878423E3,-1.7890788E2,-1.2583193E2,-7.737543E1,-2.5715408E1,2.4578327E1,1.00551414E2,2.0964857E2,2.4759057E4,4.720493E2,7.915565E2,1.3854042E4,1.5429412E3,2.952834E1,-1.8108156E1,-1.2638183E1,4.2749172E1,-1.9066046E1,-7.355432E0,-2.8090396E0,4.704936E1,7.6881836E1,2.388863E0,5.4214892E0,1.3012817E1,2.036873E2,2.0825624E1,9.456064E3,-8.113388E2,3.5234753E1,5.140818E1,7.321078E1,1.0325059E2,-8.110735E2,2.2840798E3,1.2845093E2,6.587461E2],"categories":[],"categories_nodes":[],"categories_segments":[],"categories_sizes":[],"default_left":[0,0,0,0,0,0,0,0,0,0,0,0,0,0,0,0,0,0,0,0,0,0,0,0,0,0,0,0,0,0,0,0,0,0,0,0,0,0,0,0,0,0,0,0,0,0,0,0,0],"id":24,"left_children":[1,3,5,7,9,11,-1,13,15,17,19,21,23,25,27,29,31,33,35,37,39,41,43,45,47,-1,-1,-1,-1,-1,-1,-1,-1,-1,-1,-1,-1,-1,-1,-1,-1,-1,-1,-1,-1,-1,-1,-1,-1],"loss_changes":[8.411913E10,2.4412185E10,2.4783405E10,4.867332E9,4.2280776E9,1.404031E10,0E0,6.737449E8,7.711355E8,8.553217E8,3.615912E9,3.9046554E9,2.2314516E10,4.076964E8,1.8417254E8,2.5013197E8,6.810967E8,1.7574629E8,3.5802496E8,6.5819136E8,1.4534499E10,5.0127462E8,8.8847155E8,2.9596676E10,1.6316035E10,0E0,0E0,0E0,0E0,0E0,0E0,0E0,0E0,0E0,0E0,0E0,0E0,0E0,0E0,0E0,0E0,0E0,0E0,0E0,0E0,0E0,0E0,0E0,0E0],"parents":[2147483647,0,0,1,1,2,2,3,3,4,4,5,5,7,7,8,8,9,9,10,10,11,11,12,12,13,13,14,14,15,15,16,16,17,17,18,18,19,19,20,20,21,21,22,22,23,23,24,24],"right_children":[2,4,6,8,10,12,-1,14,16,18,20,22,24,26,28,30,32,34,36,38,40,42,44,46,48,-1,-1,-1,-1,-1,-1,-1,-1,-1,-1,-1,-1,-1,-1,-1,-1,-1,-1,-1,-1,-1,-1,-1,-1],"split_conditions":[7.43E3,2.6E3,6E5,1.74E3,4.2E3,1.55E4,1.1199378E4,8.5E2,2.35E3,3.8E3,1.55E4,1.0285E4,1E1,3E-2,1.9E3,7.5E2,2E2,3.5E2,1.4E1,3.55E3,1E1,2.3E1,1.4225E4,1.8E-1,1E2,2.952834E1,-1.8108156E1,-1.2638183E1,4.2749172E1,-1.9066046E1,-7.355432E0,-2.8090396E0,4.704936E1,7.6881836E1,2.388863E0,5.4214892E0,1.3012817E1,2.036873E2,2.0825624E1,9.456064E3,-8.113388E2,3.5234753E1,5.140818E1,7.321078E1,1.0325059E2,-8.110735E2,2.2840798E3,1.2845093E2,6.587461E2],"split_indices":[7,6,6,7,6,6,0,6,7,7,6,7,0,5,6,6,3,7,0,7,0,0,6,5,5,0,0,0,0,0,0,0,0,0,0,0,0,0,0,0,0,0,0,0,0,0,0,0,0],"split_type":[0,0,0,0,0,0,0,0,0,0,0,0,0,0,0,0,0,0,0,0,0,0,0,0,0,0,0,0,0,0,0,0,0,0,0,0,0,0,0,0,0,0,0,0,0,0,0,0,0],"sum_hessian":[3.193372E6,3.018959E6,1.74413E5,2.156413E6,8.62546E5,1.74412E5,1E0,1.000614E6,1.155799E6,6.03664E5,2.58882E5,1.61743E5,1.2669E4,3.95486E5,6.05128E5,5.77871E5,5.77928E5,3.4242E5,2.61244E5,2.58877E5,5E0,9.9665E4,6.2078E4,1.48E2,1.2521E4,1.804E3,3.93682E5,6.04528E5,6E2,1.8854E4,5.59017E5,5.75176E5,2.752E3,3.16E2,3.42104E5,1.01785E5,1.59459E5,1.96E2,2.58681E5,1E0,4E0,2.5904E4,7.3761E4,4.9796E4,1.2282E4,4.3E1,1.05E2,1.1912E4,6.09E2],"tree_param":{"num_deleted":"0","num_feature":"13","num_nodes":"49","size_leaf_vector":"1"}},{"base_weights":[1.2742358E-1,-4.2512444E1,5.0344055E2,-9.6002304E1,5.7978596E1,5.0258942E2,1.0639409E4,-1.3854156E2,-6.0950336E1,5.783969E1,2.372394E4,4.218486E2,1.228874E3,-1.988858E2,-1.2858063E2,-9.409434E1,-4.3513325E1,1.2143236E1,1.2425108E2,8.983261E3,-7.4643164E3,3.136587E2,5.9108997E2,6.0421304E3,1.0757719E3,1.9268007E1,-2.1581932E1,4.9109066E1,-1.2896416E1,2.302323E1,-9.482992E0,-4.4435897E0,4.4392788E1,1.1416082E0,1.567996E2,1.0631648E1,1.8692778E1,5.8660254E2,-1.2263408E3,-1.678707E1,3.258472E1,5.351084E1,7.3398544E1,2.7227224E3,4.5939865E2,7.622335E1,3.3649963E2],"categories":[],"categories_nodes":[],"categories_segments":[],"categories_sizes":[],"default_left":[0,0,0,0,0,0,0,0,0,0,0,0,0,0,0,0,0,0,0,0,0,0,0,0,0,0,0,0,0,0,0,0,0,0,0,0,0,0,0,0,0,0,0,0,0,0,0],"id":25,"left_children":[1,3,5,7,9,11,-1,13,15,17,19,21,23,25,27,29,31,33,35,-1,37,39,41,43,45,-1,-1,-1,-1,-1,-1,-1,-1,-1,-1,-1,-1,-1,-1,-1,-1,-1,-1,-1,-1,-1,-1],"loss_changes":[6.853366E10,1.5824564E10,2.2425588E10,2.8647997E9,3.3604828E9,1.4624911E10,0E0,5.2168294E8,6.0875904E8,3.1035615E9,1.3041424E10,4.109648E9,1.8381128E10,8.1540506E8,1.7711411E8,8.665165E7,3.1041344E8,6.853719E8,4.685563E8,0E0,3.9180512E8,8.036946E8,6.9980365E8,2.3467119E10,1.7355733E10,0E0,0E0,0E0,0E0,0E0,0E0,0E0,0E0,0E0,0E0,0E0,0E0,0E0,0E0,0E0,0E0,0E0,0E0,0E0,0E0,0E0,0E0],"parents":[2147483647,0,0,1,1,2,2,3,3,4,4,5,5,7,7,8,8,9,9,10,10,11,11,12,12,13,13,14,14,15,15,16,16,17,17,18,18,20,20,21,21,22,22,23,23,24,24],"right_children":[2,4,6,8,10,12,-1,14,16,18,20,22,24,26,28,30,32,34,36,-1,38,40,42,44,46,-1,-1,-1,-1,-1,-1,-1,-1,-1,-1,-1,-1,-1,-1,-1,-1,-1,-1,-1,-1,-1,-1],"split_conditions":[6.1E3,2.35E3,6E5,1.25E3,1.55E4,1.4225E4,1.0639409E4,8E2,1.96E3,4E3,1E1,9E3,2E0,6E0,1E2,3.5E2,2E2,4E3,4.7E3,8.983261E3,6.24E2,1E0,1.26E4,1.3E1,6E0,1.9268007E1,-2.1581932E1,4.9109066E1,-1.2896416E1,2.302323E1,-9.482992E0,-4.4435897E0,4.4392788E1,1.1416082E0,1.567996E2,1.0631648E1,1.8692778E1,5.8660254E2,-1.2263408E3,-1.678707E1,3.258472E1,5.351084E1,7.3398544E1,2.7227224E3,4.5939865E2,7.622335E1,3.3649963E2],"split_indices":[7,6,6,6,6,6,0,7,7,7,0,6,4,4,6,7,3,6,6,0,2,4,7,0,4,0,0,0,0,0,0,0,0,0,0,0,0,0,0,0,0,0,0,0,0,0,0],"split_type":[0,0,0,0,0,0,0,0,0,0,0,0,0,0,0,0,0,0,0,0,0,0,0,0,0,0,0,0,0,0,0,0,0,0,0,0,0,0,0,0,0,0,0,0,0,0,0],"sum_hessian":[3.193372E6,2.943965E6,2.49407E5,1.921291E6,1.022674E6,2.49406E5,1E0,8.67945E5,1.053346E6,1.022669E6,5E0,2.24455E5,2.4951E4,1.22969E5,7.44976E5,3.63123E5,6.90223E5,6.05818E5,4.16851E5,1E0,4E0,1.36926E5,8.7529E4,7.68E2,2.4183E4,5.097E3,1.17872E5,4.6E2,7.44516E5,8.21E2,3.62302E5,6.8892E5,1.303E3,6.05536E5,2.82E2,3.24111E5,9.274E4,1E0,3E0,3.38E3,1.33546E5,6.2894E4,2.4635E4,4.8E1,7.2E2,2.1271E4,2.912E3],"tree_param":{"num_deleted":"0","num_feature":"13","num_nodes":"47","size_leaf_vector":"1"}},{"base_weights":[1.218616E-1,-3.1607157E1,5.493245E2,-6.810208E1,1.1690232E2,5.481687E2,1.0107439E4,-1.0863967E2,-2.0281223E1,1.1667417E2,2.2742135E4,4.550158E2,1.1061305E3,-1.3422157E2,-8.2925766E1,-3.863962E1,7.334777E0,8.662064E1,2.0406747E2,8.534099E3,-6.845833E3,3.8417883E2,5.967831E2,1.0959143E3,6.455046E4,-2.0866835E1,-1.2606567E1,2.6560474E1,-8.3693E0,-1.39229555E1,-3.6883686E0,-1.8761323E-1,1.4737294E1,8.624717E0,3.093811E2,1.5309801E1,2.357811E1,5.572724E2,-1.1343654E3,-9.82748E1,3.8759853E1,5.9994984E1,-3.922786E2,5.4420557E2,9.576537E1,-1.196636E3,9.404485E3],"categories":[],"categories_nodes":[],"categories_segments":[],"categories_sizes":[],"default_left":[0,0,0,0,0,0,0,0,0,0,0,0,0,0,0,0,0,0,0,0,0,0,0,0,0,0,0,0,0,0,0,0,0,0,0,0,0,0,0,0,0,0,0,0,0,0,0],"id":26,"left_children":[1,3,5,7,9,11,-1,13,15,17,19,21,23,25,27,29,31,33,35,-1,37,39,41,43,45,-1,-1,-1,-1,-1,-1,-1,-1,-1,-1,-1,-1,-1,-1,-1,-1,-1,-1,-1,-1,-1,-1],"loss_changes":[5.564665E10,1.6362294E10,2.0210508E10,4.6979113E9,3.071425E9,9.064739E9,0E0,8.627681E8,5.636841E8,1.5641303E9,1.1697267E10,1.5007212E9,1.6102113E10,3.991849E8,1.7493453E8,1.179584E8,5.7267546E8,4.9743027E8,2.4629094E8,0E0,3.424972E8,4.6626816E8,7.1507354E8,1.4986639E10,1.0152645E10,0E0,0E0,0E0,0E0,0E0,0E0,0E0,0E0,0E0,0E0,0E0,0E0,0E0,0E0,0E0,0E0,0E0,0E0,0E0,0E0,0E0,0E0],"parents":[2147483647,0,0,1,1,2,2,3,3,4,4,5,5,7,7,8,8,9,9,10,10,11,11,12,12,13,13,14,14,15,15,16,16,17,17,18,18,20,20,21,21,22,22,23,23,24,24],"right_children":[2,4,6,8,10,12,-1,14,16,18,20,22,24,26,28,30,32,34,36,-1,38,40,42,44,46,-1,-1,-1,-1,-1,-1,-1,-1,-1,-1,-1,-1,-1,-1,-1,-1,-1,-1,-1,-1,-1,-1],"split_conditions":[7.43E3,3.1E3,6E5,2.025E3,1.55E4,1.4225E4,1.0107439E4,1.09E3,2.75E3,5.25E3,1E1,1.0285E4,1.93E2,4E2,3.5E2,8E2,1.83E2,5.4E3,1.4E1,8.534099E3,6.24E2,8.5E2,1.9E1,2E0,1.2E1,-2.0866835E1,-1.2606567E1,2.6560474E1,-8.3693E0,-1.39229555E1,-3.6883686E0,-1.8761323E-1,1.4737294E1,8.624717E0,3.093811E2,1.5309801E1,2.357811E1,5.572724E2,-1.1343654E3,-9.82748E1,3.8759853E1,5.9994984E1,-3.922786E2,5.4420557E2,9.576537E1,-1.196636E3,9.404485E3],"split_indices":[7,6,6,7,6,6,0,6,7,7,0,7,3,6,7,6,3,6,0,0,2,6,8,4,5,0,0,0,0,0,0,0,0,0,0,0,0,0,0,0,0,0,0,0,0,0,0],"split_type":[0,0,0,0,0,0,0,0,0,0,0,0,0,0,0,0,0,0,0,0,0,0,0,0,0,0,0,0,0,0,0,0,0,0,0,0,0,0,0,0,0,0,0,0,0,0,0],"sum_hessian":[3.193372E6,3.018959E6,1.74413E5,2.423424E6,5.95535E5,1.74412E5,1E0,1.311591E6,1.111833E6,5.9553E5,5E0,1.49461E5,2.4951E4,6.57481E5,6.5411E5,6.67858E5,4.43975E5,4.43141E5,1.52389E5,1E0,4E0,9.9665E4,4.9796E4,2.4948E4,3E0,6.4915E4,5.92566E5,1.436E3,6.52674E5,1.1457E4,6.56401E5,4.16576E5,2.7399E4,4.43087E5,5.4E1,5.8452E4,9.3937E4,1E0,3E0,2.48E2,9.9417E4,4.9762E4,3.4E1,7.68E2,2.418E4,1E0,2E0],"tree_param":{"num_deleted":"0","num_feature":"13","num_nodes":"47","size_leaf_vector":"1"}},{"base_weights":[1.1809494E-1,-3.060391E1,4.6118195E2,-7.297678E1,6.6396935E1,4.602216E2,9.602067E3,-1.0913512E2,-4.255124E1,2.8492916E1,1.27449524E2,4.051864E2,1.2413302E3,-1.09868645E2,5.630906E2,-5.6658745E1,-2.0770382E1,-8.146549E1,3.4680855E1,-7.985845E1,1.402526E2,3.0950134E2,5.5452576E2,7.4225134E2,3.081474E3,-1.9020386E1,-1.0434459E1,4.095467E1,1.0403761E2,-1.2143627E1,-5.385622E0,-2.481925E0,-1.0147941E-1,9.183409E1,-8.49165E0,1.5322279E0,5.8880835E0,-5.3712036E1,6.0996933E0,1.822287E1,8.5367985E0,3.0836369E1,2.179409E3,4.9196587E1,6.7809326E1,4.9502832E2,4.066043E1,6.531388E2,-9.9370125E1],"categories":[],"categories_nodes":[],"categories_segments":[],"categories_sizes":[],"default_left":[0,0,0,0,0,0,0,0,0,0,0,0,0,0,0,0,0,0,0,0,0,0,0,0,0,0,0,0,0,0,0,0,0,0,0,0,0,0,0,0,0,0,0,0,0,0,0,0,0],"id":27,"left_children":[1,3,5,7,9,11,-1,13,15,17,19,21,23,25,27,29,31,33,35,37,39,41,43,45,47,-1,-1,-1,-1,-1,-1,-1,-1,-1,-1,-1,-1,-1,-1,-1,-1,-1,-1,-1,-1,-1,-1,-1,-1],"loss_changes":[4.523352E10,1.2305476E10,1.8263208E10,2.2923203E9,2.1063506E9,8.5752627E9,0E0,4.695593E8,3.47691E8,3.8210256E8,9.2537446E8,2.6628424E9,1.2056003E10,4.220549E8,7.564298E7,1.2466406E8,3.5578784E7,1.0330858E8,2.4906502E8,1.3062228E9,7.564856E8,2.769575E9,5.622456E8,1.4588217E10,3.938575E10,0E0,0E0,0E0,0E0,0E0,0E0,0E0,0E0,0E0,0E0,0E0,0E0,0E0,0E0,0E0,0E0,0E0,0E0,0E0,0E0,0E0,0E0,0E0,0E0],"parents":[2147483647,0,0,1,1,2,2,3,3,4,4,5,5,7,7,8,8,9,9,10,10,11,11,12,12,13,13,14,14,15,15,16,16,17,17,18,18,19,19,20,20,21,21,22,22,23,23,24,24],"right_children":[2,4,6,8,10,12,-1,14,16,18,20,22,24,26,28,30,32,34,36,38,40,42,44,46,48,-1,-1,-1,-1,-1,-1,-1,-1,-1,-1,-1,-1,-1,-1,-1,-1,-1,-1,-1,-1,-1,-1,-1,-1],"split_conditions":[6.1E3,2.95E3,6E5,1.68E3,4.325E3,1.6E4,9.602067E3,2E3,2.125E3,2E3,1E0,9.98E3,6E0,4E2,3.8E3,7.5E2,2.6E3,1E2,3.2E3,3.4E3,6E0,1.55E4,1.36E4,2E0,4.04E2,-1.9020386E1,-1.0434459E1,4.095467E1,1.0403761E2,-1.2143627E1,-5.385622E0,-2.481925E0,-1.0147941E-1,9.183409E1,-8.49165E0,1.5322279E0,5.8880835E0,-5.3712036E1,6.0996933E0,1.822287E1,8.5367985E0,3.0836369E1,2.179409E3,4.9196587E1,6.7809326E1,4.9502832E2,4.066043E1,6.531388E2,-9.9370125E1],"split_indices":[6,7,6,7,7,7,0,6,6,6,4,7,4,6,6,6,6,6,6,6,4,6,7,4,1,0,0,0,0,0,0,0,0,0,0,0,0,0,0,0,0,0,0,0,0,0,0,0,0],"split_type":[0,0,0,0,0,0,0,0,0,0,0,0,0,0,0,0,0,0,0,0,0,0,0,0,0,0,0,0,0,0,0,0,0,0,0,0,0,0,0,0,0,0,0,0,0,0,0,0,0],"sum_hessian":[3.193372E6,2.993882E6,1.9949E5,2.083672E6,9.1021E5,1.99489E5,1E0,9.52134E5,1.131538E6,5.61567E5,3.48643E5,1.8636E5,1.3129E4,9.51097E5,1.037E3,6.86736E5,4.44802E5,2.9918E4,5.31649E5,2.0279E4,3.28364E5,1.13586E5,7.2774E4,1.0329E4,2.8E3,6.119E4,8.89907E5,7.86E2,2.51E2,2.8477E4,6.58259E5,3.69146E5,7.5656E4,1.02E2,2.9816E4,2.95371E5,2.36278E5,4.775E3,1.5504E4,1.86061E5,1.42303E5,1.13581E5,5E0,4.8317E4,2.4457E4,7.62E2,9.567E3,1.516E3,1.284E3],"tree_param":{"num_deleted":"0","num_feature":"13","num_nodes":"49","size_leaf_vector":"1"}},{"base_weights":[1.10446036E-1,-2.9453459E1,3.91221E2,-6.813223E1,5.0117363E1,3.9040982E2,9.121964E3,-6.8188156E1,2.2291746E4,1.8122671E1,1.0268228E2,3.2551505E2,8.959362E2,-1.02348724E2,-4.302633E1,7.9984233E3,-1.2127435E3,1.0407102E1,1.10226295E2,7.437426E1,1.3755057E2,2.5101375E2,4.477735E2,6.739083E2,2.4259702E3,-1.542142E1,-9.450576E0,-4.3223324E0,2.1155577E2,-7.8489823E0,1.7224673E0,3.525366E1,-2.9470735E0,7.4333167E0,4.204384E2,1.1964162E1,1.9734526E1,1.809407E1,3.0733524E1,-3.495308E2,4.4912937E1,3.7438553E2,5.50128E1,5.306501E2,-8.928496E1],"categories":[],"categories_nodes":[],"categories_segments":[],"categories_sizes":[],"default_left":[0,0,0,0,0,0,0,0,0,0,0,0,0,0,0,0,0,0,0,0,0,0,0,0,0,0,0,0,0,0,0,0,0,0,0,0,0,0,0,0,0,0,0,0,0],"id":28,"left_children":[1,3,5,7,9,11,-1,13,15,17,19,21,23,25,27,-1,-1,29,31,33,35,37,39,41,43,-1,-1,-1,-1,-1,-1,-1,-1,-1,-1,-1,-1,-1,-1,-1,-1,-1,-1,-1,-1],"loss_changes":[3.69242E10,9.137551E9,1.6499595E10,2.4998226E9,1.6332396E9,7.3620685E9,0E0,1.717207E9,1.0898645E10,4.2899674E8,3.6267622E8,1.8114683E9,8.671508E9,3.4468352E8,4.892887E8,0E0,0E0,3.3759197E8,1.5795203E9,3.41088E7,1.7628595E8,4.8768717E8,4.0418406E8,8.470781E9,3.0931218E10,0E0,0E0,0E0,0E0,0E0,0E0,0E0,0E0,0E0,0E0,0E0,0E0,0E0,0E0,0E0,0E0,0E0,0E0,0E0,0E0],"parents":[2147483647,0,0,1,1,2,2,3,3,4,4,5,5,7,7,8,8,9,9,10,10,11,11,12,12,13,13,14,14,17,17,18,18,19,19,20,20,21,21,22,22,23,23,24,24],"right_children":[2,4,6,8,10,12,-1,14,16,18,20,22,24,26,28,-1,-1,30,32,34,36,38,40,42,44,-1,-1,-1,-1,-1,-1,-1,-1,-1,-1,-1,-1,-1,-1,-1,-1,-1,-1,-1,-1],"split_conditions":[6.45E3,2.8E3,6E5,1.55E4,3.605E3,1.46E4,9.121964E3,1.25E3,1E1,1.83E2,4.96E3,9.6E3,6E0,7.5E2,4.7E3,7.9984233E3,-1.2127435E3,2E3,3E0,6.1E3,2.3E1,2.3E1,4.1E2,2E0,3.98E2,-1.542142E1,-9.450576E0,-4.3223324E0,2.1155577E2,-7.8489823E0,1.7224673E0,3.525366E1,-2.9470735E0,7.4333167E0,4.204384E2,1.1964162E1,1.9734526E1,1.809407E1,3.0733524E1,-3.495308E2,4.4912937E1,3.7438553E2,5.50128E1,5.306501E2,-8.928496E1],"split_indices":[7,7,6,6,6,7,0,6,0,3,7,7,4,7,6,0,0,6,4,6,0,0,6,4,1,0,0,0,0,0,0,0,0,0,0,0,0,0,0,0,0,0,0,0,0],"split_type":[0,0,0,0,0,0,0,0,0,0,0,0,0,0,0,0,0,0,0,0,0,0,0,0,0,0,0,0,0,0,0,0,0,0,0,0,0,0,0,0,0,0,0,0,0],"sum_hessian":[3.193372E6,2.968951E6,2.24421E5,1.997824E6,9.71127E5,2.2442E5,1E0,1.99782E6,4E0,6.03684E5,3.67443E5,1.9889E5,2.553E4,8.47382E5,1.150438E6,1E0,3E0,5.57023E5,4.6661E4,2.02801E5,1.64642E5,1.23584E5,7.5306E4,2.2296E4,3.234E3,1.11305E5,7.36077E5,1.150334E6,1.04E2,3.9675E4,5.17348E5,1.7063E4,2.9598E4,2.028E5,1E0,1.26698E5,3.7944E4,5.5071E4,6.8513E4,2.5E1,7.5281E4,8.63E2,2.1433E4,1.731E3,1.503E3],"tree_param":{"num_deleted":"0","num_feature":"13","num_nodes":"45","size_leaf_vector":"1"}},{"base_weights":[1.047838E-1,-2.319988E1,4.0348895E2,-4.9787598E1,8.4994026E1,4.0249756E2,8.665866E3,-7.962135E1,-1.3110082E1,8.480149E1,1.918114E4,3.3353674E2,8.155553E2,-1.1210933E2,-6.7348206E1,-1.4499047E1,2.0036739E2,6.3351524E1,1.5312569E2,7.5985015E3,-7.376637E3,2.586971E2,4.0722614E2,8.0615247E2,5.925953E4,1.1204452E1,-1.1691468E1,-1.1722059E1,-6.4760127E0,-1.2255319E1,-1.2253951E0,-8.04024E0,3.6740734E1,1.03730095E2,6.255781E0,1.1069183E1,1.8091486E1,3.994165E2,-1.121788E3,2.614857E1,-3.0250104E2,3.662794E1,4.9197247E1,7.466697E1,6.495855E2,-1.1959938E3,8.698601E3],"categories":[],"categories_nodes":[],"categories_segments":[],"categories_sizes":[],"default_left":[0,0,0,0,0,0,0,0,0,0,0,0,0,0,0,0,0,0,0,0,0,0,0,0,0,0,0,0,0,0,0,0,0,0,0,0,0,0,0,0,0,0,0,0,0,0,0],"id":29,"left_children":[1,3,5,7,9,11,-1,13,15,17,19,21,23,25,27,29,31,33,35,-1,37,39,41,43,45,-1,-1,-1,-1,-1,-1,-1,-1,-1,-1,-1,-1,-1,-1,-1,-1,-1,-1,-1,-1,-1,-1],"loss_changes":[3.0020053E10,8.684433E9,1.4879918E10,2.6517786E9,2.1879926E9,4.967846E9,0E0,5.3285274E8,3.2232224E8,8.727721E8,9.612022E9,8.241613E8,1.3664335E10,3.947054E8,1.2518963E8,2.6199957E8,3.2959418E8,3.5030643E8,1.677696E8,0E0,2.6319606E8,6.798218E8,2.611456E8,8.438877E9,8.939005E9,0E0,0E0,0E0,0E0,0E0,0E0,0E0,0E0,0E0,0E0,0E0,0E0,0E0,0E0,0E0,0E0,0E0,0E0,0E0,0E0,0E0,0E0],"parents":[2147483647,0,0,1,1,2,2,3,3,4,4,5,5,7,7,8,8,9,9,10,10,11,11,12,12,13,13,14,14,15,15,16,16,17,17,18,18,20,20,21,21,22,22,23,23,24,24],"right_children":[2,4,6,8,10,12,-1,14,16,18,20,22,24,26,28,30,32,34,36,-1,